network unknown {
}
variable jordtype {
  type discrete [ 9 ] { Jb_1_, JB_2, JB_3, JB_4, JB_5, JB_6, Jb_7, JB_8, JB_9 };
}
variable komm {
  type discrete [ 5 ] { state0, state1, state2, state3, state4 };
}
variable nedbarea {
  type discrete [ 3 ] { x1___375_, x2__375_500_, x3___500_ };
}
variable nmin {
  type discrete [ 6 ] { x0_15, x15_30, x30_45, x45_60, x60_75, x_75 };
}
variable aar_mod {
  type discrete [ 11 ] { x_25, x_20, x_15, x_10, x_5, x0, x5, x10, x15, x20, x25 };
}
variable forfrugt {
  type discrete [ 5 ] { Cereals, Cer_rotation, Beets, Clovergrass, Other };
}
variable potnmin {
  type discrete [ 8 ] { x0_15, x15_30, x30_45, x45_60, x60_75, x75_90, x90_105, x_105 };
}
variable jordn {
  type discrete [ 9 ] { x0_15, x15_30, x30_45, x45_60, x60_75, x75_90, x90_105, x105_120, x_120 };
}
variable pesticid {
  type discrete [ 2 ] { x_, x_2 };
}
variable exptgens {
  type discrete [ 6 ] { x_30, x30_40, x40_50, x50_60, x60_70, x_70 };
}
variable mod_nmin {
  type discrete [ 6 ] { x0_15, x15_30, x30_45, x45_60, x60_75, x_75 };
}
variable ngodnt {
  type discrete [ 10 ] { x_45, x45_60, x60_75, x75_90, x90_105, x105_120, x120_135, x135_150, x150_165, x_165 };
}
variable nopt {
  type discrete [ 6 ] { x_120, x120_135, x135_150, x150_165, x165_180, x_180 };
}
variable ngodnn {
  type discrete [ 10 ] { x_45, x45_60, x60_75, x75_90, x90_105, x105_120, x120_135, x135_150, x150_165, x_165 };
}
variable ngodn {
  type discrete [ 10 ] { x_45, x45_60, x60_75, x75_90, x90_105, x105_120, x120_135, x135_150, x150_165, x_165 };
}
variable nprot {
  type discrete [ 8 ] { x_40, x40_60, x60_80, x80_100, x100_120, x120_140, x140_160, x_160 };
}
variable saatid {
  type discrete [ 5 ] { x_26_3, x26_3_10_4, x11_4_20_4, x21_4_26_4, x_26_4 };
}
variable rokap {
  type discrete [ 7 ] { x37_5_62_5, x62_5_87_5, x87_5_112_5, x112_5_137_5, x137_5_162_5, x162_5_187_5, x187_5_212_5 };
}
variable dgv1059 {
  type discrete [ 6 ] { x_25, x25_40, x41_50, x51_60, x61_70, x_70 };
}
variable sort {
  type discrete [ 67 ] { Abelone, Alexis, Alis, Amber, Ariel, Baracuda, Baronesse, Bartok, Blenheim, Brewster, Caminant, Canut, Caruso, Chariot, Collie, Cooper, Cork, Delibes, Derkado, Digger, Etna, Evelyn, Give, Goldie, G_363ta, Heron, Jarek, Jill, Korinna, Krona, Lamba, Lenka, Limbo, Loma, Lysimax, Maresi, Marielle, Marina, Maud, Meltan, Mentor, Mie, Miralix, Nevada, Optic, Peel, Polygena, Portia, Princesse, Prisma, Ragtime, Reggae, Rima, Saxo, Segu, Sehila, Selim, Semal, Senor, Shamu, Teal, Texane, Tofta, Trebon, Vintage, x_321rja, andre };
}
variable srtprot {
  type discrete [ 9 ] { x1, x2, x3, x4, x5, x6, x7, x8, x9 };
}
variable nplac {
  type discrete [ 3 ] { Top_dressed, worked_in_solil, Placed };
}
variable dg25 {
  type discrete [ 7 ] { x_22_5, x11_5_27_5, x27_5_32_5, x32_5_37_5, x37_5_47_5, x47_5_57_5, x_57_5 };
}
variable ngtilg {
  type discrete [ 10 ] { x_45, x45_60, x60_75, x75_90, x90_105, x105_120, x120_135, x135_150, x150_165, x_165 };
}
variable ntilg {
  type discrete [ 10 ] { x_75, x75_90, x90_105, x105_120, x120_135, x135_150, x150_165, x165_180, x180_195, x_195 };
}
variable saamng {
  type discrete [ 10 ] { x50_70, x70_90, x90_110, x110_130, x130_150, x150_170, x170_190, x190_210, x210_230, x230_250 };
}
variable tkvs {
  type discrete [ 9 ] { x30_35, x35_40, x40_42, x42_44, x44_46, x46_48, x48_50, x50_55, x55_60 };
}
variable saakern {
  type discrete [ 7 ] { x_175, x175_225, x225_275, x275_325, x325_375, x375_424, x_450 };
}
variable partigerm {
  type discrete [ 9 ] { x_80, x80_85, x85_90, x90_93, x93_95, x95_97, x97_98, x98_99, x99_100 };
}
variable frspdag {
  type discrete [ 8 ] { x_15, x15_17, x17_19, x19_21, x21_23, x23_25, x25_27, x_27 };
}
variable jordinf {
  type discrete [ 9 ] { x__80, x_80__85, x_94__90, x90__93, x93__95, x_95__97, x_97__98, x_98__99, x_99_1_00 };
}
variable markgrm {
  type discrete [ 10 ] { x_75, x75_80, x80_85, x85_90, x90_93, x94_95, x95_97, x97_98, x98__99, x99_100 };
}
variable antplnt {
  type discrete [ 7 ] { x_175, x175_225, x225_275, x275_325, x325_375, x375_425, x_425 };
}
variable sorttkv {
  type discrete [ 9 ] { x1, x2, x3, x4, x5, x6, x7, x8, x9 };
}
variable aks_m2 {
  type discrete [ 8 ] { x_350, x350_450, x450_550, x550_650, x650_750, x750_950, x950_1150, x_1150 };
}
variable keraks {
  type discrete [ 7 ] { x_13, x13_15, x15_17, x17_19, x19_21, x21_23, x_23 };
}
variable dgv5980 {
  type discrete [ 6 ] { x0_5, x5_10, x10_15, x15_25, x25_35, x_35 };
}
variable aks_vgt {
  type discrete [ 9 ] { x_550, x550_600, x600_650, x650_700, x700_750, x750_850, x850_950, x950_1050, x_1050 };
}
variable srtsize {
  type discrete [ 7 ] { x__1, x_1, x0, x1, x2, x3, x_3 };
}
variable ksort {
  type discrete [ 5 ] { x_85, x85_90, x90_95, x95_98, x_98 };
}
variable protein {
  type discrete [ 8 ] { x_9, x9_0_9_5, x9_5_10_0, x10_0_10_5, x10_5_11_0, x11_0_11_5, x11_5_12_0, x_12_0 };
}
variable udb {
  type discrete [ 9 ] { x_30, x30_40, x40_50, x50_55, x55_60, x60_65, x65_70, x70_80, x_80 };
}
variable spndx {
  type discrete [ 4 ] { x_7, x7_8, x8_9, x9_10 };
}
variable tkv {
  type discrete [ 8 ] { x_35, x35_40, x40_42_5, x42_5_45, x45_47_5, x47_5_50, x50_55, x_55 };
}
variable slt22 {
  type discrete [ 4 ] { x0_1, x1_2, x2_3, x3_5 };
}
variable s2225 {
  type discrete [ 4 ] { x0_1, x1_5, x5_10, x10_15 };
}
variable s2528 {
  type discrete [ 20 ] { x0_5, x5_10, x10_15, x15_20, x20_25, x25_30, x30_35, x35_40, x40_45, x45_50, x50_55, x55_60, x60_65, x65_70, x70_75, x75_80, x80_85, x85_90, x90_95, x95_100 };
}
variable bgbyg {
  type discrete [ 6 ] { x_3_0, x3_0_3_5, x3_5_4_0, x4_0_4_5, x4_5_5_0, x_5_0 };
}
probability ( jordtype ) {
  table 0.1111111, 0.1111111, 0.1111111, 0.1111111, 0.1111111, 0.1111111, 0.1111111, 0.1111111, 0.1111111;
}
probability ( komm ) {
  table 0.2, 0.2, 0.2, 0.2, 0.2;
}
probability ( nedbarea | komm ) {
  (state0) 0.3333333, 0.3333333, 0.3333333;
  (state1) 0.3333333, 0.3333333, 0.3333333;
  (state2) 0.3333333, 0.3333333, 0.3333333;
  (state3) 0.3333333, 0.3333333, 0.3333333;
  (state4) 0.3333333, 0.3333333, 0.3333333;
}
probability ( nmin | jordtype, nedbarea ) {
  (Jb_1_, x1___375_) 0.49980008, 0.49980008, 0.00009996, 0.00009996, 0.00009996, 0.00009996;
  (JB_2, x1___375_) 0.00209979, 0.23537646, 0.68583142, 0.07639236, 0.00019998, 0.00009999;
  (JB_3, x1___375_) 0.49980008, 0.49980008, 0.00009996, 0.00009996, 0.00009996, 0.00009996;
  (JB_4, x1___375_) 0.00209979, 0.23537646, 0.68583142, 0.07639236, 0.00019998, 0.00009999;
  (JB_5, x1___375_) 0.0004, 0.0474, 0.4522, 0.4522, 0.0474, 0.0004;
  (JB_6, x1___375_) 0.0004, 0.0474, 0.4522, 0.4522, 0.0474, 0.0004;
  (Jb_7, x1___375_) 0.0004, 0.0474, 0.4522, 0.4522, 0.0474, 0.0004;
  (JB_8, x1___375_) 0.0004, 0.0474, 0.4522, 0.4522, 0.0474, 0.0004;
  (JB_9, x1___375_) 0.0004, 0.0474, 0.4522, 0.4522, 0.0474, 0.0004;
  (Jb_1_, x2__375_500_) 0.49980008, 0.49980008, 0.00009996, 0.00009996, 0.00009996, 0.00009996;
  (JB_2, x2__375_500_) 0.00619876, 0.49370126, 0.49370126, 0.00619876, 0.00009998, 0.00009998;
  (JB_3, x2__375_500_) 0.49980008, 0.49980008, 0.00009996, 0.00009996, 0.00009996, 0.00009996;
  (JB_4, x2__375_500_) 0.00619876, 0.49370126, 0.49370126, 0.00619876, 0.00009998, 0.00009998;
  (JB_5, x2__375_500_) 0.00089982, 0.10477904, 0.62827435, 0.25974805, 0.00619876, 0.00009998;
  (JB_6, x2__375_500_) 0.00089982, 0.10477904, 0.62827435, 0.25974805, 0.00619876, 0.00009998;
  (Jb_7, x2__375_500_) 0.00089982, 0.10477904, 0.62827435, 0.25974805, 0.00619876, 0.00009998;
  (JB_8, x2__375_500_) 0.00089982, 0.10477904, 0.62827435, 0.25974805, 0.00619876, 0.00009998;
  (JB_9, x2__375_500_) 0.00089982, 0.10477904, 0.62827435, 0.25974805, 0.00619876, 0.00009998;
  (Jb_1_, x3___500_) 0.49980008, 0.49980008, 0.00009996, 0.00009996, 0.00009996, 0.00009996;
  (JB_2, x3___500_) 0.02279316, 0.81835450, 0.15855243, 0.00009997, 0.00009997, 0.00009997;
  (JB_3, x3___500_) 0.49980008, 0.49980008, 0.00009996, 0.00009996, 0.00009996, 0.00009996;
  (JB_4, x3___500_) 0.02279316, 0.81835450, 0.15855243, 0.00009997, 0.00009997, 0.00009997;
  (JB_5, x3___500_) 0.00209979, 0.23537646, 0.68583142, 0.07639236, 0.00019998, 0.00009999;
  (JB_6, x3___500_) 0.00209979, 0.23537646, 0.68583142, 0.07639236, 0.00019998, 0.00009999;
  (Jb_7, x3___500_) 0.00209979, 0.23537646, 0.68583142, 0.07639236, 0.00019998, 0.00009999;
  (JB_8, x3___500_) 0.00209979, 0.23537646, 0.68583142, 0.07639236, 0.00019998, 0.00009999;
  (JB_9, x3___500_) 0.00209979, 0.23537646, 0.68583142, 0.07639236, 0.00019998, 0.00009999;
}
probability ( aar_mod | komm, jordtype ) {
  (state0, Jb_1_) 0.09090909, 0.09090909, 0.09090909, 0.09090909, 0.09090909, 0.09090909, 0.09090909, 0.09090909, 0.09090909, 0.09090909, 0.09090909;
  (state1, Jb_1_) 0.09090909, 0.09090909, 0.09090909, 0.09090909, 0.09090909, 0.09090909, 0.09090909, 0.09090909, 0.09090909, 0.09090909, 0.09090909;
  (state2, Jb_1_) 0.09090909, 0.09090909, 0.09090909, 0.09090909, 0.09090909, 0.09090909, 0.09090909, 0.09090909, 0.09090909, 0.09090909, 0.09090909;
  (state3, Jb_1_) 0.09090909, 0.09090909, 0.09090909, 0.09090909, 0.09090909, 0.09090909, 0.09090909, 0.09090909, 0.09090909, 0.09090909, 0.09090909;
  (state4, Jb_1_) 0.09090909, 0.09090909, 0.09090909, 0.09090909, 0.09090909, 0.09090909, 0.09090909, 0.09090909, 0.09090909, 0.09090909, 0.09090909;
  (state0, JB_2) 0.09090909, 0.09090909, 0.09090909, 0.09090909, 0.09090909, 0.09090909, 0.09090909, 0.09090909, 0.09090909, 0.09090909, 0.09090909;
  (state1, JB_2) 0.09090909, 0.09090909, 0.09090909, 0.09090909, 0.09090909, 0.09090909, 0.09090909, 0.09090909, 0.09090909, 0.09090909, 0.09090909;
  (state2, JB_2) 0.09090909, 0.09090909, 0.09090909, 0.09090909, 0.09090909, 0.09090909, 0.09090909, 0.09090909, 0.09090909, 0.09090909, 0.09090909;
  (state3, JB_2) 0.09090909, 0.09090909, 0.09090909, 0.09090909, 0.09090909, 0.09090909, 0.09090909, 0.09090909, 0.09090909, 0.09090909, 0.09090909;
  (state4, JB_2) 0.09090909, 0.09090909, 0.09090909, 0.09090909, 0.09090909, 0.09090909, 0.09090909, 0.09090909, 0.09090909, 0.09090909, 0.09090909;
  (state0, JB_3) 0.09090909, 0.09090909, 0.09090909, 0.09090909, 0.09090909, 0.09090909, 0.09090909, 0.09090909, 0.09090909, 0.09090909, 0.09090909;
  (state1, JB_3) 0.09090909, 0.09090909, 0.09090909, 0.09090909, 0.09090909, 0.09090909, 0.09090909, 0.09090909, 0.09090909, 0.09090909, 0.09090909;
  (state2, JB_3) 0.09090909, 0.09090909, 0.09090909, 0.09090909, 0.09090909, 0.09090909, 0.09090909, 0.09090909, 0.09090909, 0.09090909, 0.09090909;
  (state3, JB_3) 0.09090909, 0.09090909, 0.09090909, 0.09090909, 0.09090909, 0.09090909, 0.09090909, 0.09090909, 0.09090909, 0.09090909, 0.09090909;
  (state4, JB_3) 0.09090909, 0.09090909, 0.09090909, 0.09090909, 0.09090909, 0.09090909, 0.09090909, 0.09090909, 0.09090909, 0.09090909, 0.09090909;
  (state0, JB_4) 0.09090909, 0.09090909, 0.09090909, 0.09090909, 0.09090909, 0.09090909, 0.09090909, 0.09090909, 0.09090909, 0.09090909, 0.09090909;
  (state1, JB_4) 0.09090909, 0.09090909, 0.09090909, 0.09090909, 0.09090909, 0.09090909, 0.09090909, 0.09090909, 0.09090909, 0.09090909, 0.09090909;
  (state2, JB_4) 0.09090909, 0.09090909, 0.09090909, 0.09090909, 0.09090909, 0.09090909, 0.09090909, 0.09090909, 0.09090909, 0.09090909, 0.09090909;
  (state3, JB_4) 0.09090909, 0.09090909, 0.09090909, 0.09090909, 0.09090909, 0.09090909, 0.09090909, 0.09090909, 0.09090909, 0.09090909, 0.09090909;
  (state4, JB_4) 0.09090909, 0.09090909, 0.09090909, 0.09090909, 0.09090909, 0.09090909, 0.09090909, 0.09090909, 0.09090909, 0.09090909, 0.09090909;
  (state0, JB_5) 0.09090909, 0.09090909, 0.09090909, 0.09090909, 0.09090909, 0.09090909, 0.09090909, 0.09090909, 0.09090909, 0.09090909, 0.09090909;
  (state1, JB_5) 0.09090909, 0.09090909, 0.09090909, 0.09090909, 0.09090909, 0.09090909, 0.09090909, 0.09090909, 0.09090909, 0.09090909, 0.09090909;
  (state2, JB_5) 0.09090909, 0.09090909, 0.09090909, 0.09090909, 0.09090909, 0.09090909, 0.09090909, 0.09090909, 0.09090909, 0.09090909, 0.09090909;
  (state3, JB_5) 0.09090909, 0.09090909, 0.09090909, 0.09090909, 0.09090909, 0.09090909, 0.09090909, 0.09090909, 0.09090909, 0.09090909, 0.09090909;
  (state4, JB_5) 0.09090909, 0.09090909, 0.09090909, 0.09090909, 0.09090909, 0.09090909, 0.09090909, 0.09090909, 0.09090909, 0.09090909, 0.09090909;
  (state0, JB_6) 0.09090909, 0.09090909, 0.09090909, 0.09090909, 0.09090909, 0.09090909, 0.09090909, 0.09090909, 0.09090909, 0.09090909, 0.09090909;
  (state1, JB_6) 0.09090909, 0.09090909, 0.09090909, 0.09090909, 0.09090909, 0.09090909, 0.09090909, 0.09090909, 0.09090909, 0.09090909, 0.09090909;
  (state2, JB_6) 0.09090909, 0.09090909, 0.09090909, 0.09090909, 0.09090909, 0.09090909, 0.09090909, 0.09090909, 0.09090909, 0.09090909, 0.09090909;
  (state3, JB_6) 0.09090909, 0.09090909, 0.09090909, 0.09090909, 0.09090909, 0.09090909, 0.09090909, 0.09090909, 0.09090909, 0.09090909, 0.09090909;
  (state4, JB_6) 0.09090909, 0.09090909, 0.09090909, 0.09090909, 0.09090909, 0.09090909, 0.09090909, 0.09090909, 0.09090909, 0.09090909, 0.09090909;
  (state0, Jb_7) 0.09090909, 0.09090909, 0.09090909, 0.09090909, 0.09090909, 0.09090909, 0.09090909, 0.09090909, 0.09090909, 0.09090909, 0.09090909;
  (state1, Jb_7) 0.09090909, 0.09090909, 0.09090909, 0.09090909, 0.09090909, 0.09090909, 0.09090909, 0.09090909, 0.09090909, 0.09090909, 0.09090909;
  (state2, Jb_7) 0.09090909, 0.09090909, 0.09090909, 0.09090909, 0.09090909, 0.09090909, 0.09090909, 0.09090909, 0.09090909, 0.09090909, 0.09090909;
  (state3, Jb_7) 0.09090909, 0.09090909, 0.09090909, 0.09090909, 0.09090909, 0.09090909, 0.09090909, 0.09090909, 0.09090909, 0.09090909, 0.09090909;
  (state4, Jb_7) 0.09090909, 0.09090909, 0.09090909, 0.09090909, 0.09090909, 0.09090909, 0.09090909, 0.09090909, 0.09090909, 0.09090909, 0.09090909;
  (state0, JB_8) 0.09090909, 0.09090909, 0.09090909, 0.09090909, 0.09090909, 0.09090909, 0.09090909, 0.09090909, 0.09090909, 0.09090909, 0.09090909;
  (state1, JB_8) 0.09090909, 0.09090909, 0.09090909, 0.09090909, 0.09090909, 0.09090909, 0.09090909, 0.09090909, 0.09090909, 0.09090909, 0.09090909;
  (state2, JB_8) 0.09090909, 0.09090909, 0.09090909, 0.09090909, 0.09090909, 0.09090909, 0.09090909, 0.09090909, 0.09090909, 0.09090909, 0.09090909;
  (state3, JB_8) 0.09090909, 0.09090909, 0.09090909, 0.09090909, 0.09090909, 0.09090909, 0.09090909, 0.09090909, 0.09090909, 0.09090909, 0.09090909;
  (state4, JB_8) 0.09090909, 0.09090909, 0.09090909, 0.09090909, 0.09090909, 0.09090909, 0.09090909, 0.09090909, 0.09090909, 0.09090909, 0.09090909;
  (state0, JB_9) 0.09090909, 0.09090909, 0.09090909, 0.09090909, 0.09090909, 0.09090909, 0.09090909, 0.09090909, 0.09090909, 0.09090909, 0.09090909;
  (state1, JB_9) 0.09090909, 0.09090909, 0.09090909, 0.09090909, 0.09090909, 0.09090909, 0.09090909, 0.09090909, 0.09090909, 0.09090909, 0.09090909;
  (state2, JB_9) 0.09090909, 0.09090909, 0.09090909, 0.09090909, 0.09090909, 0.09090909, 0.09090909, 0.09090909, 0.09090909, 0.09090909, 0.09090909;
  (state3, JB_9) 0.09090909, 0.09090909, 0.09090909, 0.09090909, 0.09090909, 0.09090909, 0.09090909, 0.09090909, 0.09090909, 0.09090909, 0.09090909;
  (state4, JB_9) 0.09090909, 0.09090909, 0.09090909, 0.09090909, 0.09090909, 0.09090909, 0.09090909, 0.09090909, 0.09090909, 0.09090909, 0.09090909;
}
probability ( forfrugt ) {
  table 0.2, 0.2, 0.2, 0.2, 0.2;
}
probability ( potnmin | jordtype, forfrugt ) {
  (Jb_1_, Cereals) 0.99810114, 0.00129922, 0.00009994, 0.00009994, 0.00009994, 0.00009994, 0.00009994, 0.00009994;
  (JB_2, Cereals) 0.27416292, 0.71714143, 0.00819590, 0.00009995, 0.00009995, 0.00009995, 0.00009995, 0.00009995;
  (JB_3, Cereals) 0.99810114, 0.00129922, 0.00009994, 0.00009994, 0.00009994, 0.00009994, 0.00009994, 0.00009994;
  (JB_4, Cereals) 0.27416292, 0.71714143, 0.00819590, 0.00009995, 0.00009995, 0.00009995, 0.00009995, 0.00009995;
  (JB_5, Cereals) 0.26219512, 0.50399841, 0.21521391, 0.01799280, 0.00029988, 0.00009996, 0.00009996, 0.00009996;
  (JB_6, Cereals) 0.26219512, 0.50399841, 0.21521391, 0.01799280, 0.00029988, 0.00009996, 0.00009996, 0.00009996;
  (Jb_7, Cereals) 0.26219512, 0.50399841, 0.21521391, 0.01799280, 0.00029988, 0.00009996, 0.00009996, 0.00009996;
  (JB_8, Cereals) 0.26219512, 0.50399841, 0.21521391, 0.01799280, 0.00029988, 0.00009996, 0.00009996, 0.00009996;
  (JB_9, Cereals) 0.26219512, 0.50399841, 0.21521391, 0.01799280, 0.00029988, 0.00009996, 0.00009996, 0.00009996;
  (Jb_1_, Cer_rotation) 0.38194722, 0.50259896, 0.11155538, 0.00349860, 0.00009996, 0.00009996, 0.00009996, 0.00009996;
  (JB_2, Cer_rotation) 0.10327934, 0.21455709, 0.30603879, 0.24155169, 0.10547890, 0.02539492, 0.00339932, 0.00029994;
  (JB_3, Cer_rotation) 0.38194722, 0.50259896, 0.11155538, 0.00349860, 0.00009996, 0.00009996, 0.00009996, 0.00009996;
  (JB_4, Cer_rotation) 0.10327934, 0.21455709, 0.30603879, 0.24155169, 0.10547890, 0.02539492, 0.00339932, 0.00029994;
  (JB_5, Cer_rotation) 0.03409659, 0.13918608, 0.30316968, 0.31836816, 0.16108389, 0.03919608, 0.00459954, 0.00029997;
  (JB_6, Cer_rotation) 0.03409659, 0.13918608, 0.30316968, 0.31836816, 0.16108389, 0.03919608, 0.00459954, 0.00029997;
  (Jb_7, Cer_rotation) 0.03409659, 0.13918608, 0.30316968, 0.31836816, 0.16108389, 0.03919608, 0.00459954, 0.00029997;
  (JB_8, Cer_rotation) 0.03409659, 0.13918608, 0.30316968, 0.31836816, 0.16108389, 0.03919608, 0.00459954, 0.00029997;
  (JB_9, Cer_rotation) 0.03409659, 0.13918608, 0.30316968, 0.31836816, 0.16108389, 0.03919608, 0.00459954, 0.00029997;
  (Jb_1_, Beets) 0.02278861, 0.81819090, 0.15852074, 0.00009995, 0.00009995, 0.00009995, 0.00009995, 0.00009995;
  (JB_2, Beets) 0.00009998, 0.00809838, 0.17586483, 0.54159168, 0.25634873, 0.01769646, 0.00019996, 0.00009998;
  (JB_3, Beets) 0.02278861, 0.81819090, 0.15852074, 0.00009995, 0.00009995, 0.00009995, 0.00009995, 0.00009995;
  (JB_4, Beets) 0.00009998, 0.00809838, 0.17586483, 0.54159168, 0.25634873, 0.01769646, 0.00019996, 0.00009998;
  (JB_5, Beets) 0.0649, 0.0796, 0.1278, 0.1675, 0.1793, 0.1566, 0.1116, 0.1127;
  (JB_6, Beets) 0.0649, 0.0796, 0.1278, 0.1675, 0.1793, 0.1566, 0.1116, 0.1127;
  (Jb_7, Beets) 0.0649, 0.0796, 0.1278, 0.1675, 0.1793, 0.1566, 0.1116, 0.1127;
  (JB_8, Beets) 0.0649, 0.0796, 0.1278, 0.1675, 0.1793, 0.1566, 0.1116, 0.1127;
  (JB_9, Beets) 0.0649, 0.0796, 0.1278, 0.1675, 0.1793, 0.1566, 0.1116, 0.1127;
  (Jb_1_, Clovergrass) 0.1303, 0.2953, 0.3477, 0.1809, 0.0414, 0.0041, 0.0002, 0.0001;
  (JB_2, Clovergrass) 0.0860, 0.0727, 0.1043, 0.1312, 0.1446, 0.1396, 0.1181, 0.2035;
  (JB_3, Clovergrass) 0.1303, 0.2953, 0.3477, 0.1809, 0.0414, 0.0041, 0.0002, 0.0001;
  (JB_4, Clovergrass) 0.0860, 0.0727, 0.1043, 0.1312, 0.1446, 0.1396, 0.1181, 0.2035;
  (JB_5, Clovergrass) 0.1294, 0.0581, 0.0719, 0.0840, 0.0925, 0.0962, 0.0944, 0.3735;
  (JB_6, Clovergrass) 0.1294, 0.0581, 0.0719, 0.0840, 0.0925, 0.0962, 0.0944, 0.3735;
  (Jb_7, Clovergrass) 0.1294, 0.0581, 0.0719, 0.0840, 0.0925, 0.0962, 0.0944, 0.3735;
  (JB_8, Clovergrass) 0.1294, 0.0581, 0.0719, 0.0840, 0.0925, 0.0962, 0.0944, 0.3735;
  (JB_9, Clovergrass) 0.1294, 0.0581, 0.0719, 0.0840, 0.0925, 0.0962, 0.0944, 0.3735;
  (Jb_1_, Other) 0.00329934, 0.28044391, 0.65796841, 0.05788842, 0.00009998, 0.00009998, 0.00009998, 0.00009998;
  (JB_2, Other) 0.0029, 0.0174, 0.0709, 0.1767, 0.2700, 0.2530, 0.1453, 0.0638;
  (JB_3, Other) 0.00329934, 0.28044391, 0.65796841, 0.05788842, 0.00009998, 0.00009998, 0.00009998, 0.00009998;
  (JB_4, Other) 0.0029, 0.0174, 0.0709, 0.1767, 0.2700, 0.2530, 0.1453, 0.0638;
  (JB_5, Other) 0.06020602, 0.04840484, 0.07150715, 0.09550955, 0.11541154, 0.12591259, 0.12421242, 0.35883588;
  (JB_6, Other) 0.06020602, 0.04840484, 0.07150715, 0.09550955, 0.11541154, 0.12591259, 0.12421242, 0.35883588;
  (Jb_7, Other) 0.06020602, 0.04840484, 0.07150715, 0.09550955, 0.11541154, 0.12591259, 0.12421242, 0.35883588;
  (JB_8, Other) 0.06020602, 0.04840484, 0.07150715, 0.09550955, 0.11541154, 0.12591259, 0.12421242, 0.35883588;
  (JB_9, Other) 0.06020602, 0.04840484, 0.07150715, 0.09550955, 0.11541154, 0.12591259, 0.12421242, 0.35883588;
}
probability ( jordn | nmin, aar_mod, potnmin ) {
  (x0_15, x_25, x0_15) 0.00009992, 0.00009992, 0.99920064, 0.00009992, 0.00009992, 0.00009992, 0.00009992, 0.00009992, 0.00009992;
  (x15_30, x_25, x0_15) 0.00009992, 0.00009992, 0.00009992, 0.99920064, 0.00009992, 0.00009992, 0.00009992, 0.00009992, 0.00009992;
  (x30_45, x_25, x0_15) 0.00009992, 0.00009992, 0.00009992, 0.00009992, 0.99920064, 0.00009992, 0.00009992, 0.00009992, 0.00009992;
  (x45_60, x_25, x0_15) 0.00009992, 0.00009992, 0.00009992, 0.00009992, 0.00009992, 0.99920064, 0.00009992, 0.00009992, 0.00009992;
  (x60_75, x_25, x0_15) 0.00009992, 0.00009992, 0.00009992, 0.00009992, 0.00009992, 0.00009992, 0.99920064, 0.00009992, 0.00009992;
  (x_75, x_25, x0_15) 0.00009992, 0.00009992, 0.00009992, 0.00009992, 0.00009992, 0.00009992, 0.00009992, 0.99920064, 0.00009992;
  (x0_15, x_20, x0_15) 0.00009992, 0.00009992, 0.99920064, 0.00009992, 0.00009992, 0.00009992, 0.00009992, 0.00009992, 0.00009992;
  (x15_30, x_20, x0_15) 0.00009992, 0.00009992, 0.00009992, 0.99920064, 0.00009992, 0.00009992, 0.00009992, 0.00009992, 0.00009992;
  (x30_45, x_20, x0_15) 0.00009992, 0.00009992, 0.00009992, 0.00009992, 0.99920064, 0.00009992, 0.00009992, 0.00009992, 0.00009992;
  (x45_60, x_20, x0_15) 0.00009992, 0.00009992, 0.00009992, 0.00009992, 0.00009992, 0.99920064, 0.00009992, 0.00009992, 0.00009992;
  (x60_75, x_20, x0_15) 0.00009992, 0.00009992, 0.00009992, 0.00009992, 0.00009992, 0.00009992, 0.99920064, 0.00009992, 0.00009992;
  (x_75, x_20, x0_15) 0.00009992, 0.00009992, 0.00009992, 0.00009992, 0.00009992, 0.00009992, 0.00009992, 0.99920064, 0.00009992;
  (x0_15, x_15, x0_15) 0.00009993, 0.49965024, 0.49965024, 0.00009993, 0.00009993, 0.00009993, 0.00009993, 0.00009993, 0.00009993;
  (x15_30, x_15, x0_15) 0.00009993, 0.00009993, 0.49965024, 0.49965024, 0.00009993, 0.00009993, 0.00009993, 0.00009993, 0.00009993;
  (x30_45, x_15, x0_15) 0.00009993, 0.00009993, 0.00009993, 0.49965024, 0.49965024, 0.00009993, 0.00009993, 0.00009993, 0.00009993;
  (x45_60, x_15, x0_15) 0.00009993, 0.00009993, 0.00009993, 0.00009993, 0.49965024, 0.49965024, 0.00009993, 0.00009993, 0.00009993;
  (x60_75, x_15, x0_15) 0.00009993, 0.00009993, 0.00009993, 0.00009993, 0.00009993, 0.49965024, 0.49965024, 0.00009993, 0.00009993;
  (x_75, x_15, x0_15) 0.00009992, 0.00009992, 0.00009992, 0.00009992, 0.00009992, 0.00009992, 0.00009992, 0.99920064, 0.00009992;
  (x0_15, x_10, x0_15) 0.00009992, 0.99920064, 0.00009992, 0.00009992, 0.00009992, 0.00009992, 0.00009992, 0.00009992, 0.00009992;
  (x15_30, x_10, x0_15) 0.00009992, 0.00009992, 0.99920064, 0.00009992, 0.00009992, 0.00009992, 0.00009992, 0.00009992, 0.00009992;
  (x30_45, x_10, x0_15) 0.00009992, 0.00009992, 0.00009992, 0.99920064, 0.00009992, 0.00009992, 0.00009992, 0.00009992, 0.00009992;
  (x45_60, x_10, x0_15) 0.00009992, 0.00009992, 0.00009992, 0.00009992, 0.99920064, 0.00009992, 0.00009992, 0.00009992, 0.00009992;
  (x60_75, x_10, x0_15) 0.00009992, 0.00009992, 0.00009992, 0.00009992, 0.00009992, 0.99920064, 0.00009992, 0.00009992, 0.00009992;
  (x_75, x_10, x0_15) 0.00009992, 0.00009992, 0.00009992, 0.00009992, 0.00009992, 0.00009992, 0.99920064, 0.00009992, 0.00009992;
  (x0_15, x_5, x0_15) 0.00009992, 0.99920064, 0.00009992, 0.00009992, 0.00009992, 0.00009992, 0.00009992, 0.00009992, 0.00009992;
  (x15_30, x_5, x0_15) 0.00009992, 0.00009992, 0.99920064, 0.00009992, 0.00009992, 0.00009992, 0.00009992, 0.00009992, 0.00009992;
  (x30_45, x_5, x0_15) 0.00009992, 0.00009992, 0.00009992, 0.99920064, 0.00009992, 0.00009992, 0.00009992, 0.00009992, 0.00009992;
  (x45_60, x_5, x0_15) 0.00009992, 0.00009992, 0.00009992, 0.00009992, 0.99920064, 0.00009992, 0.00009992, 0.00009992, 0.00009992;
  (x60_75, x_5, x0_15) 0.00009992, 0.00009992, 0.00009992, 0.00009992, 0.00009992, 0.99920064, 0.00009992, 0.00009992, 0.00009992;
  (x_75, x_5, x0_15) 0.00009992, 0.00009992, 0.00009992, 0.00009992, 0.00009992, 0.00009992, 0.99920064, 0.00009992, 0.00009992;
  (x0_15, x0, x0_15) 0.49965024, 0.49965024, 0.00009993, 0.00009993, 0.00009993, 0.00009993, 0.00009993, 0.00009993, 0.00009993;
  (x15_30, x0, x0_15) 0.00009993, 0.49965024, 0.49965024, 0.00009993, 0.00009993, 0.00009993, 0.00009993, 0.00009993, 0.00009993;
  (x30_45, x0, x0_15) 0.00009993, 0.00009993, 0.49965024, 0.49965024, 0.00009993, 0.00009993, 0.00009993, 0.00009993, 0.00009993;
  (x45_60, x0, x0_15) 0.00009993, 0.00009993, 0.00009993, 0.49965024, 0.49965024, 0.00009993, 0.00009993, 0.00009993, 0.00009993;
  (x60_75, x0, x0_15) 0.00009993, 0.00009993, 0.00009993, 0.00009993, 0.49965024, 0.49965024, 0.00009993, 0.00009993, 0.00009993;
  (x_75, x0, x0_15) 0.00009992, 0.00009992, 0.00009992, 0.00009992, 0.00009992, 0.00009992, 0.99920064, 0.00009992, 0.00009992;
  (x0_15, x5, x0_15) 0.99920064, 0.00009992, 0.00009992, 0.00009992, 0.00009992, 0.00009992, 0.00009992, 0.00009992, 0.00009992;
  (x15_30, x5, x0_15) 0.00009992, 0.99920064, 0.00009992, 0.00009992, 0.00009992, 0.00009992, 0.00009992, 0.00009992, 0.00009992;
  (x30_45, x5, x0_15) 0.00009992, 0.00009992, 0.99920064, 0.00009992, 0.00009992, 0.00009992, 0.00009992, 0.00009992, 0.00009992;
  (x45_60, x5, x0_15) 0.00009992, 0.00009992, 0.00009992, 0.99920064, 0.00009992, 0.00009992, 0.00009992, 0.00009992, 0.00009992;
  (x60_75, x5, x0_15) 0.00009992, 0.00009992, 0.00009992, 0.00009992, 0.99920064, 0.00009992, 0.00009992, 0.00009992, 0.00009992;
  (x_75, x5, x0_15) 0.00009992, 0.00009992, 0.00009992, 0.00009992, 0.00009992, 0.99920064, 0.00009992, 0.00009992, 0.00009992;
  (x0_15, x10, x0_15) 0.99920064, 0.00009992, 0.00009992, 0.00009992, 0.00009992, 0.00009992, 0.00009992, 0.00009992, 0.00009992;
  (x15_30, x10, x0_15) 0.00009992, 0.99920064, 0.00009992, 0.00009992, 0.00009992, 0.00009992, 0.00009992, 0.00009992, 0.00009992;
  (x30_45, x10, x0_15) 0.00009992, 0.00009992, 0.99920064, 0.00009992, 0.00009992, 0.00009992, 0.00009992, 0.00009992, 0.00009992;
  (x45_60, x10, x0_15) 0.00009992, 0.00009992, 0.00009992, 0.99920064, 0.00009992, 0.00009992, 0.00009992, 0.00009992, 0.00009992;
  (x60_75, x10, x0_15) 0.00009992, 0.00009992, 0.00009992, 0.00009992, 0.99920064, 0.00009992, 0.00009992, 0.00009992, 0.00009992;
  (x_75, x10, x0_15) 0.00009992, 0.00009992, 0.00009992, 0.00009992, 0.00009992, 0.99920064, 0.00009992, 0.00009992, 0.00009992;
  (x0_15, x15, x0_15) 0.99920064, 0.00009992, 0.00009992, 0.00009992, 0.00009992, 0.00009992, 0.00009992, 0.00009992, 0.00009992;
  (x15_30, x15, x0_15) 0.49965024, 0.49965024, 0.00009993, 0.00009993, 0.00009993, 0.00009993, 0.00009993, 0.00009993, 0.00009993;
  (x30_45, x15, x0_15) 0.00009993, 0.49965024, 0.49965024, 0.00009993, 0.00009993, 0.00009993, 0.00009993, 0.00009993, 0.00009993;
  (x45_60, x15, x0_15) 0.00009993, 0.00009993, 0.49965024, 0.49965024, 0.00009993, 0.00009993, 0.00009993, 0.00009993, 0.00009993;
  (x60_75, x15, x0_15) 0.00009993, 0.00009993, 0.00009993, 0.49965024, 0.49965024, 0.00009993, 0.00009993, 0.00009993, 0.00009993;
  (x_75, x15, x0_15) 0.00009992, 0.00009992, 0.00009992, 0.00009992, 0.00009992, 0.99920064, 0.00009992, 0.00009992, 0.00009992;
  (x0_15, x20, x0_15) 0.99920064, 0.00009992, 0.00009992, 0.00009992, 0.00009992, 0.00009992, 0.00009992, 0.00009992, 0.00009992;
  (x15_30, x20, x0_15) 0.99920064, 0.00009992, 0.00009992, 0.00009992, 0.00009992, 0.00009992, 0.00009992, 0.00009992, 0.00009992;
  (x30_45, x20, x0_15) 0.00009992, 0.99920064, 0.00009992, 0.00009992, 0.00009992, 0.00009992, 0.00009992, 0.00009992, 0.00009992;
  (x45_60, x20, x0_15) 0.00009992, 0.00009992, 0.99920064, 0.00009992, 0.00009992, 0.00009992, 0.00009992, 0.00009992, 0.00009992;
  (x60_75, x20, x0_15) 0.00009992, 0.00009992, 0.00009992, 0.99920064, 0.00009992, 0.00009992, 0.00009992, 0.00009992, 0.00009992;
  (x_75, x20, x0_15) 0.00009992, 0.00009992, 0.00009992, 0.00009992, 0.99920064, 0.00009992, 0.00009992, 0.00009992, 0.00009992;
  (x0_15, x25, x0_15) 0.99920064, 0.00009992, 0.00009992, 0.00009992, 0.00009992, 0.00009992, 0.00009992, 0.00009992, 0.00009992;
  (x15_30, x25, x0_15) 0.99920064, 0.00009992, 0.00009992, 0.00009992, 0.00009992, 0.00009992, 0.00009992, 0.00009992, 0.00009992;
  (x30_45, x25, x0_15) 0.00009992, 0.99920064, 0.00009992, 0.00009992, 0.00009992, 0.00009992, 0.00009992, 0.00009992, 0.00009992;
  (x45_60, x25, x0_15) 0.00009992, 0.00009992, 0.99920064, 0.00009992, 0.00009992, 0.00009992, 0.00009992, 0.00009992, 0.00009992;
  (x60_75, x25, x0_15) 0.00009992, 0.00009992, 0.00009992, 0.99920064, 0.00009992, 0.00009992, 0.00009992, 0.00009992, 0.00009992;
  (x_75, x25, x0_15) 0.00009992, 0.00009992, 0.00009992, 0.00009992, 0.99920064, 0.00009992, 0.00009992, 0.00009992, 0.00009992;
  (x0_15, x_25, x15_30) 0.00009992, 0.00009992, 0.00009992, 0.99920064, 0.00009992, 0.00009992, 0.00009992, 0.00009992, 0.00009992;
  (x15_30, x_25, x15_30) 0.00009992, 0.00009992, 0.00009992, 0.00009992, 0.99920064, 0.00009992, 0.00009992, 0.00009992, 0.00009992;
  (x30_45, x_25, x15_30) 0.00009992, 0.00009992, 0.00009992, 0.00009992, 0.00009992, 0.99920064, 0.00009992, 0.00009992, 0.00009992;
  (x45_60, x_25, x15_30) 0.00009992, 0.00009992, 0.00009992, 0.00009992, 0.00009992, 0.00009992, 0.99920064, 0.00009992, 0.00009992;
  (x60_75, x_25, x15_30) 0.00009992, 0.00009992, 0.00009992, 0.00009992, 0.00009992, 0.00009992, 0.00009992, 0.99920064, 0.00009992;
  (x_75, x_25, x15_30) 0.00009992, 0.00009992, 0.00009992, 0.00009992, 0.00009992, 0.00009992, 0.00009992, 0.00009992, 0.99920064;
  (x0_15, x_20, x15_30) 0.00009992, 0.00009992, 0.00009992, 0.99920064, 0.00009992, 0.00009992, 0.00009992, 0.00009992, 0.00009992;
  (x15_30, x_20, x15_30) 0.00009992, 0.00009992, 0.00009992, 0.00009992, 0.99920064, 0.00009992, 0.00009992, 0.00009992, 0.00009992;
  (x30_45, x_20, x15_30) 0.00009992, 0.00009992, 0.00009992, 0.00009992, 0.00009992, 0.99920064, 0.00009992, 0.00009992, 0.00009992;
  (x45_60, x_20, x15_30) 0.00009992, 0.00009992, 0.00009992, 0.00009992, 0.00009992, 0.00009992, 0.99920064, 0.00009992, 0.00009992;
  (x60_75, x_20, x15_30) 0.00009992, 0.00009992, 0.00009992, 0.00009992, 0.00009992, 0.00009992, 0.00009992, 0.99920064, 0.00009992;
  (x_75, x_20, x15_30) 0.00009992, 0.00009992, 0.00009992, 0.00009992, 0.00009992, 0.00009992, 0.00009992, 0.00009992, 0.99920064;
  (x0_15, x_15, x15_30) 0.00009993, 0.00009993, 0.49965024, 0.49965024, 0.00009993, 0.00009993, 0.00009993, 0.00009993, 0.00009993;
  (x15_30, x_15, x15_30) 0.00009993, 0.00009993, 0.00009993, 0.49965024, 0.49965024, 0.00009993, 0.00009993, 0.00009993, 0.00009993;
  (x30_45, x_15, x15_30) 0.00009993, 0.00009993, 0.00009993, 0.00009993, 0.49965024, 0.49965024, 0.00009993, 0.00009993, 0.00009993;
  (x45_60, x_15, x15_30) 0.00009993, 0.00009993, 0.00009993, 0.00009993, 0.00009993, 0.49965024, 0.49965024, 0.00009993, 0.00009993;
  (x60_75, x_15, x15_30) 0.00009993, 0.00009993, 0.00009993, 0.00009993, 0.00009993, 0.00009993, 0.49965024, 0.49965024, 0.00009993;
  (x_75, x_15, x15_30) 0.00009992, 0.00009992, 0.00009992, 0.00009992, 0.00009992, 0.00009992, 0.00009992, 0.00009992, 0.99920064;
  (x0_15, x_10, x15_30) 0.00009992, 0.00009992, 0.99920064, 0.00009992, 0.00009992, 0.00009992, 0.00009992, 0.00009992, 0.00009992;
  (x15_30, x_10, x15_30) 0.00009992, 0.00009992, 0.00009992, 0.99920064, 0.00009992, 0.00009992, 0.00009992, 0.00009992, 0.00009992;
  (x30_45, x_10, x15_30) 0.00009992, 0.00009992, 0.00009992, 0.00009992, 0.99920064, 0.00009992, 0.00009992, 0.00009992, 0.00009992;
  (x45_60, x_10, x15_30) 0.00009992, 0.00009992, 0.00009992, 0.00009992, 0.00009992, 0.99920064, 0.00009992, 0.00009992, 0.00009992;
  (x60_75, x_10, x15_30) 0.00009992, 0.00009992, 0.00009992, 0.00009992, 0.00009992, 0.00009992, 0.99920064, 0.00009992, 0.00009992;
  (x_75, x_10, x15_30) 0.00009992, 0.00009992, 0.00009992, 0.00009992, 0.00009992, 0.00009992, 0.00009992, 0.99920064, 0.00009992;
  (x0_15, x_5, x15_30) 0.00009992, 0.00009992, 0.99920064, 0.00009992, 0.00009992, 0.00009992, 0.00009992, 0.00009992, 0.00009992;
  (x15_30, x_5, x15_30) 0.00009992, 0.00009992, 0.00009992, 0.99920064, 0.00009992, 0.00009992, 0.00009992, 0.00009992, 0.00009992;
  (x30_45, x_5, x15_30) 0.00009992, 0.00009992, 0.00009992, 0.00009992, 0.99920064, 0.00009992, 0.00009992, 0.00009992, 0.00009992;
  (x45_60, x_5, x15_30) 0.00009992, 0.00009992, 0.00009992, 0.00009992, 0.00009992, 0.99920064, 0.00009992, 0.00009992, 0.00009992;
  (x60_75, x_5, x15_30) 0.00009992, 0.00009992, 0.00009992, 0.00009992, 0.00009992, 0.00009992, 0.99920064, 0.00009992, 0.00009992;
  (x_75, x_5, x15_30) 0.00009992, 0.00009992, 0.00009992, 0.00009992, 0.00009992, 0.00009992, 0.00009992, 0.99920064, 0.00009992;
  (x0_15, x0, x15_30) 0.00009993, 0.49965024, 0.49965024, 0.00009993, 0.00009993, 0.00009993, 0.00009993, 0.00009993, 0.00009993;
  (x15_30, x0, x15_30) 0.00009993, 0.00009993, 0.49965024, 0.49965024, 0.00009993, 0.00009993, 0.00009993, 0.00009993, 0.00009993;
  (x30_45, x0, x15_30) 0.00009993, 0.00009993, 0.00009993, 0.49965024, 0.49965024, 0.00009993, 0.00009993, 0.00009993, 0.00009993;
  (x45_60, x0, x15_30) 0.00009993, 0.00009993, 0.00009993, 0.00009993, 0.49965024, 0.49965024, 0.00009993, 0.00009993, 0.00009993;
  (x60_75, x0, x15_30) 0.00009993, 0.00009993, 0.00009993, 0.00009993, 0.00009993, 0.49965024, 0.49965024, 0.00009993, 0.00009993;
  (x_75, x0, x15_30) 0.00009992, 0.00009992, 0.00009992, 0.00009992, 0.00009992, 0.00009992, 0.00009992, 0.99920064, 0.00009992;
  (x0_15, x5, x15_30) 0.00009992, 0.99920064, 0.00009992, 0.00009992, 0.00009992, 0.00009992, 0.00009992, 0.00009992, 0.00009992;
  (x15_30, x5, x15_30) 0.00009992, 0.00009992, 0.99920064, 0.00009992, 0.00009992, 0.00009992, 0.00009992, 0.00009992, 0.00009992;
  (x30_45, x5, x15_30) 0.00009992, 0.00009992, 0.00009992, 0.99920064, 0.00009992, 0.00009992, 0.00009992, 0.00009992, 0.00009992;
  (x45_60, x5, x15_30) 0.00009992, 0.00009992, 0.00009992, 0.00009992, 0.99920064, 0.00009992, 0.00009992, 0.00009992, 0.00009992;
  (x60_75, x5, x15_30) 0.00009992, 0.00009992, 0.00009992, 0.00009992, 0.00009992, 0.99920064, 0.00009992, 0.00009992, 0.00009992;
  (x_75, x5, x15_30) 0.00009992, 0.00009992, 0.00009992, 0.00009992, 0.00009992, 0.00009992, 0.99920064, 0.00009992, 0.00009992;
  (x0_15, x10, x15_30) 0.00009992, 0.99920064, 0.00009992, 0.00009992, 0.00009992, 0.00009992, 0.00009992, 0.00009992, 0.00009992;
  (x15_30, x10, x15_30) 0.00009992, 0.00009992, 0.99920064, 0.00009992, 0.00009992, 0.00009992, 0.00009992, 0.00009992, 0.00009992;
  (x30_45, x10, x15_30) 0.00009992, 0.00009992, 0.00009992, 0.99920064, 0.00009992, 0.00009992, 0.00009992, 0.00009992, 0.00009992;
  (x45_60, x10, x15_30) 0.00009992, 0.00009992, 0.00009992, 0.00009992, 0.99920064, 0.00009992, 0.00009992, 0.00009992, 0.00009992;
  (x60_75, x10, x15_30) 0.00009992, 0.00009992, 0.00009992, 0.00009992, 0.00009992, 0.99920064, 0.00009992, 0.00009992, 0.00009992;
  (x_75, x10, x15_30) 0.00009992, 0.00009992, 0.00009992, 0.00009992, 0.00009992, 0.00009992, 0.99920064, 0.00009992, 0.00009992;
  (x0_15, x15, x15_30) 0.49965024, 0.49965024, 0.00009993, 0.00009993, 0.00009993, 0.00009993, 0.00009993, 0.00009993, 0.00009993;
  (x15_30, x15, x15_30) 0.00009993, 0.49965024, 0.49965024, 0.00009993, 0.00009993, 0.00009993, 0.00009993, 0.00009993, 0.00009993;
  (x30_45, x15, x15_30) 0.00009993, 0.00009993, 0.49965024, 0.49965024, 0.00009993, 0.00009993, 0.00009993, 0.00009993, 0.00009993;
  (x45_60, x15, x15_30) 0.00009993, 0.00009993, 0.00009993, 0.49965024, 0.49965024, 0.00009993, 0.00009993, 0.00009993, 0.00009993;
  (x60_75, x15, x15_30) 0.00009993, 0.00009993, 0.00009993, 0.00009993, 0.49965024, 0.49965024, 0.00009993, 0.00009993, 0.00009993;
  (x_75, x15, x15_30) 0.00009992, 0.00009992, 0.00009992, 0.00009992, 0.00009992, 0.00009992, 0.99920064, 0.00009992, 0.00009992;
  (x0_15, x20, x15_30) 0.99920064, 0.00009992, 0.00009992, 0.00009992, 0.00009992, 0.00009992, 0.00009992, 0.00009992, 0.00009992;
  (x15_30, x20, x15_30) 0.00009992, 0.99920064, 0.00009992, 0.00009992, 0.00009992, 0.00009992, 0.00009992, 0.00009992, 0.00009992;
  (x30_45, x20, x15_30) 0.00009992, 0.00009992, 0.99920064, 0.00009992, 0.00009992, 0.00009992, 0.00009992, 0.00009992, 0.00009992;
  (x45_60, x20, x15_30) 0.00009992, 0.00009992, 0.00009992, 0.99920064, 0.00009992, 0.00009992, 0.00009992, 0.00009992, 0.00009992;
  (x60_75, x20, x15_30) 0.00009992, 0.00009992, 0.00009992, 0.00009992, 0.99920064, 0.00009992, 0.00009992, 0.00009992, 0.00009992;
  (x_75, x20, x15_30) 0.00009992, 0.00009992, 0.00009992, 0.00009992, 0.00009992, 0.99920064, 0.00009992, 0.00009992, 0.00009992;
  (x0_15, x25, x15_30) 0.99920064, 0.00009992, 0.00009992, 0.00009992, 0.00009992, 0.00009992, 0.00009992, 0.00009992, 0.00009992;
  (x15_30, x25, x15_30) 0.00009992, 0.99920064, 0.00009992, 0.00009992, 0.00009992, 0.00009992, 0.00009992, 0.00009992, 0.00009992;
  (x30_45, x25, x15_30) 0.00009992, 0.00009992, 0.99920064, 0.00009992, 0.00009992, 0.00009992, 0.00009992, 0.00009992, 0.00009992;
  (x45_60, x25, x15_30) 0.00009992, 0.00009992, 0.00009992, 0.99920064, 0.00009992, 0.00009992, 0.00009992, 0.00009992, 0.00009992;
  (x60_75, x25, x15_30) 0.00009992, 0.00009992, 0.00009992, 0.00009992, 0.99920064, 0.00009992, 0.00009992, 0.00009992, 0.00009992;
  (x_75, x25, x15_30) 0.00009992, 0.00009992, 0.00009992, 0.00009992, 0.00009992, 0.99920064, 0.00009992, 0.00009992, 0.00009992;
  (x0_15, x_25, x30_45) 0.00009992, 0.00009992, 0.00009992, 0.00009992, 0.99920064, 0.00009992, 0.00009992, 0.00009992, 0.00009992;
  (x15_30, x_25, x30_45) 0.00009992, 0.00009992, 0.00009992, 0.00009992, 0.00009992, 0.99920064, 0.00009992, 0.00009992, 0.00009992;
  (x30_45, x_25, x30_45) 0.00009992, 0.00009992, 0.00009992, 0.00009992, 0.00009992, 0.00009992, 0.99920064, 0.00009992, 0.00009992;
  (x45_60, x_25, x30_45) 0.00009992, 0.00009992, 0.00009992, 0.00009992, 0.00009992, 0.00009992, 0.00009992, 0.99920064, 0.00009992;
  (x60_75, x_25, x30_45) 0.00009992, 0.00009992, 0.00009992, 0.00009992, 0.00009992, 0.00009992, 0.00009992, 0.00009992, 0.99920064;
  (x_75, x_25, x30_45) 0.00009992, 0.00009992, 0.00009992, 0.00009992, 0.00009992, 0.00009992, 0.00009992, 0.00009992, 0.99920064;
  (x0_15, x_20, x30_45) 0.00009992, 0.00009992, 0.00009992, 0.00009992, 0.99920064, 0.00009992, 0.00009992, 0.00009992, 0.00009992;
  (x15_30, x_20, x30_45) 0.00009992, 0.00009992, 0.00009992, 0.00009992, 0.00009992, 0.99920064, 0.00009992, 0.00009992, 0.00009992;
  (x30_45, x_20, x30_45) 0.00009992, 0.00009992, 0.00009992, 0.00009992, 0.00009992, 0.00009992, 0.99920064, 0.00009992, 0.00009992;
  (x45_60, x_20, x30_45) 0.00009992, 0.00009992, 0.00009992, 0.00009992, 0.00009992, 0.00009992, 0.00009992, 0.99920064, 0.00009992;
  (x60_75, x_20, x30_45) 0.00009992, 0.00009992, 0.00009992, 0.00009992, 0.00009992, 0.00009992, 0.00009992, 0.00009992, 0.99920064;
  (x_75, x_20, x30_45) 0.00009992, 0.00009992, 0.00009992, 0.00009992, 0.00009992, 0.00009992, 0.00009992, 0.00009992, 0.99920064;
  (x0_15, x_15, x30_45) 0.00009993, 0.00009993, 0.00009993, 0.49965024, 0.49965024, 0.00009993, 0.00009993, 0.00009993, 0.00009993;
  (x15_30, x_15, x30_45) 0.00009993, 0.00009993, 0.00009993, 0.00009993, 0.49965024, 0.49965024, 0.00009993, 0.00009993, 0.00009993;
  (x30_45, x_15, x30_45) 0.00009993, 0.00009993, 0.00009993, 0.00009993, 0.00009993, 0.49965024, 0.49965024, 0.00009993, 0.00009993;
  (x45_60, x_15, x30_45) 0.00009993, 0.00009993, 0.00009993, 0.00009993, 0.00009993, 0.00009993, 0.49965024, 0.49965024, 0.00009993;
  (x60_75, x_15, x30_45) 0.00009993, 0.00009993, 0.00009993, 0.00009993, 0.00009993, 0.00009993, 0.00009993, 0.49965024, 0.49965024;
  (x_75, x_15, x30_45) 0.00009992, 0.00009992, 0.00009992, 0.00009992, 0.00009992, 0.00009992, 0.00009992, 0.00009992, 0.99920064;
  (x0_15, x_10, x30_45) 0.00009992, 0.00009992, 0.00009992, 0.99920064, 0.00009992, 0.00009992, 0.00009992, 0.00009992, 0.00009992;
  (x15_30, x_10, x30_45) 0.00009992, 0.00009992, 0.00009992, 0.00009992, 0.99920064, 0.00009992, 0.00009992, 0.00009992, 0.00009992;
  (x30_45, x_10, x30_45) 0.00009992, 0.00009992, 0.00009992, 0.00009992, 0.00009992, 0.99920064, 0.00009992, 0.00009992, 0.00009992;
  (x45_60, x_10, x30_45) 0.00009992, 0.00009992, 0.00009992, 0.00009992, 0.00009992, 0.00009992, 0.99920064, 0.00009992, 0.00009992;
  (x60_75, x_10, x30_45) 0.00009992, 0.00009992, 0.00009992, 0.00009992, 0.00009992, 0.00009992, 0.00009992, 0.99920064, 0.00009992;
  (x_75, x_10, x30_45) 0.00009992, 0.00009992, 0.00009992, 0.00009992, 0.00009992, 0.00009992, 0.00009992, 0.00009992, 0.99920064;
  (x0_15, x_5, x30_45) 0.00009992, 0.00009992, 0.00009992, 0.99920064, 0.00009992, 0.00009992, 0.00009992, 0.00009992, 0.00009992;
  (x15_30, x_5, x30_45) 0.00009992, 0.00009992, 0.00009992, 0.00009992, 0.99920064, 0.00009992, 0.00009992, 0.00009992, 0.00009992;
  (x30_45, x_5, x30_45) 0.00009992, 0.00009992, 0.00009992, 0.00009992, 0.00009992, 0.99920064, 0.00009992, 0.00009992, 0.00009992;
  (x45_60, x_5, x30_45) 0.00009992, 0.00009992, 0.00009992, 0.00009992, 0.00009992, 0.00009992, 0.99920064, 0.00009992, 0.00009992;
  (x60_75, x_5, x30_45) 0.00009992, 0.00009992, 0.00009992, 0.00009992, 0.00009992, 0.00009992, 0.00009992, 0.99920064, 0.00009992;
  (x_75, x_5, x30_45) 0.00009992, 0.00009992, 0.00009992, 0.00009992, 0.00009992, 0.00009992, 0.00009992, 0.00009992, 0.99920064;
  (x0_15, x0, x30_45) 0.00009993, 0.00009993, 0.49965024, 0.49965024, 0.00009993, 0.00009993, 0.00009993, 0.00009993, 0.00009993;
  (x15_30, x0, x30_45) 0.00009993, 0.00009993, 0.00009993, 0.49965024, 0.49965024, 0.00009993, 0.00009993, 0.00009993, 0.00009993;
  (x30_45, x0, x30_45) 0.00009993, 0.00009993, 0.00009993, 0.00009993, 0.49965024, 0.49965024, 0.00009993, 0.00009993, 0.00009993;
  (x45_60, x0, x30_45) 0.00009993, 0.00009993, 0.00009993, 0.00009993, 0.00009993, 0.49965024, 0.49965024, 0.00009993, 0.00009993;
  (x60_75, x0, x30_45) 0.00009993, 0.00009993, 0.00009993, 0.00009993, 0.00009993, 0.00009993, 0.49965024, 0.49965024, 0.00009993;
  (x_75, x0, x30_45) 0.00009992, 0.00009992, 0.00009992, 0.00009992, 0.00009992, 0.00009992, 0.00009992, 0.00009992, 0.99920064;
  (x0_15, x5, x30_45) 0.00009992, 0.00009992, 0.99920064, 0.00009992, 0.00009992, 0.00009992, 0.00009992, 0.00009992, 0.00009992;
  (x15_30, x5, x30_45) 0.00009992, 0.00009992, 0.00009992, 0.99920064, 0.00009992, 0.00009992, 0.00009992, 0.00009992, 0.00009992;
  (x30_45, x5, x30_45) 0.00009992, 0.00009992, 0.00009992, 0.00009992, 0.99920064, 0.00009992, 0.00009992, 0.00009992, 0.00009992;
  (x45_60, x5, x30_45) 0.00009992, 0.00009992, 0.00009992, 0.00009992, 0.00009992, 0.99920064, 0.00009992, 0.00009992, 0.00009992;
  (x60_75, x5, x30_45) 0.00009992, 0.00009992, 0.00009992, 0.00009992, 0.00009992, 0.00009992, 0.99920064, 0.00009992, 0.00009992;
  (x_75, x5, x30_45) 0.00009992, 0.00009992, 0.00009992, 0.00009992, 0.00009992, 0.00009992, 0.00009992, 0.99920064, 0.00009992;
  (x0_15, x10, x30_45) 0.00009992, 0.00009992, 0.99920064, 0.00009992, 0.00009992, 0.00009992, 0.00009992, 0.00009992, 0.00009992;
  (x15_30, x10, x30_45) 0.00009992, 0.00009992, 0.00009992, 0.99920064, 0.00009992, 0.00009992, 0.00009992, 0.00009992, 0.00009992;
  (x30_45, x10, x30_45) 0.00009992, 0.00009992, 0.00009992, 0.00009992, 0.99920064, 0.00009992, 0.00009992, 0.00009992, 0.00009992;
  (x45_60, x10, x30_45) 0.00009992, 0.00009992, 0.00009992, 0.00009992, 0.00009992, 0.99920064, 0.00009992, 0.00009992, 0.00009992;
  (x60_75, x10, x30_45) 0.00009992, 0.00009992, 0.00009992, 0.00009992, 0.00009992, 0.00009992, 0.99920064, 0.00009992, 0.00009992;
  (x_75, x10, x30_45) 0.00009992, 0.00009992, 0.00009992, 0.00009992, 0.00009992, 0.00009992, 0.00009992, 0.99920064, 0.00009992;
  (x0_15, x15, x30_45) 0.00009993, 0.49965024, 0.49965024, 0.00009993, 0.00009993, 0.00009993, 0.00009993, 0.00009993, 0.00009993;
  (x15_30, x15, x30_45) 0.00009993, 0.00009993, 0.49965024, 0.49965024, 0.00009993, 0.00009993, 0.00009993, 0.00009993, 0.00009993;
  (x30_45, x15, x30_45) 0.00009993, 0.00009993, 0.00009993, 0.49965024, 0.49965024, 0.00009993, 0.00009993, 0.00009993, 0.00009993;
  (x45_60, x15, x30_45) 0.00009993, 0.00009993, 0.00009993, 0.00009993, 0.49965024, 0.49965024, 0.00009993, 0.00009993, 0.00009993;
  (x60_75, x15, x30_45) 0.00009993, 0.00009993, 0.00009993, 0.00009993, 0.00009993, 0.49965024, 0.49965024, 0.00009993, 0.00009993;
  (x_75, x15, x30_45) 0.00009992, 0.00009992, 0.00009992, 0.00009992, 0.00009992, 0.00009992, 0.00009992, 0.99920064, 0.00009992;
  (x0_15, x20, x30_45) 0.00009992, 0.99920064, 0.00009992, 0.00009992, 0.00009992, 0.00009992, 0.00009992, 0.00009992, 0.00009992;
  (x15_30, x20, x30_45) 0.00009992, 0.00009992, 0.99920064, 0.00009992, 0.00009992, 0.00009992, 0.00009992, 0.00009992, 0.00009992;
  (x30_45, x20, x30_45) 0.00009992, 0.00009992, 0.00009992, 0.99920064, 0.00009992, 0.00009992, 0.00009992, 0.00009992, 0.00009992;
  (x45_60, x20, x30_45) 0.00009992, 0.00009992, 0.00009992, 0.00009992, 0.99920064, 0.00009992, 0.00009992, 0.00009992, 0.00009992;
  (x60_75, x20, x30_45) 0.00009992, 0.00009992, 0.00009992, 0.00009992, 0.00009992, 0.99920064, 0.00009992, 0.00009992, 0.00009992;
  (x_75, x20, x30_45) 0.00009992, 0.00009992, 0.00009992, 0.00009992, 0.00009992, 0.00009992, 0.99920064, 0.00009992, 0.00009992;
  (x0_15, x25, x30_45) 0.00009992, 0.99920064, 0.00009992, 0.00009992, 0.00009992, 0.00009992, 0.00009992, 0.00009992, 0.00009992;
  (x15_30, x25, x30_45) 0.00009992, 0.00009992, 0.99920064, 0.00009992, 0.00009992, 0.00009992, 0.00009992, 0.00009992, 0.00009992;
  (x30_45, x25, x30_45) 0.00009992, 0.00009992, 0.00009992, 0.99920064, 0.00009992, 0.00009992, 0.00009992, 0.00009992, 0.00009992;
  (x45_60, x25, x30_45) 0.00009992, 0.00009992, 0.00009992, 0.00009992, 0.99920064, 0.00009992, 0.00009992, 0.00009992, 0.00009992;
  (x60_75, x25, x30_45) 0.00009992, 0.00009992, 0.00009992, 0.00009992, 0.00009992, 0.99920064, 0.00009992, 0.00009992, 0.00009992;
  (x_75, x25, x30_45) 0.00009992, 0.00009992, 0.00009992, 0.00009992, 0.00009992, 0.00009992, 0.99920064, 0.00009992, 0.00009992;
  (x0_15, x_25, x45_60) 0.00009992, 0.00009992, 0.00009992, 0.00009992, 0.00009992, 0.99920064, 0.00009992, 0.00009992, 0.00009992;
  (x15_30, x_25, x45_60) 0.00009992, 0.00009992, 0.00009992, 0.00009992, 0.00009992, 0.00009992, 0.99920064, 0.00009992, 0.00009992;
  (x30_45, x_25, x45_60) 0.00009992, 0.00009992, 0.00009992, 0.00009992, 0.00009992, 0.00009992, 0.00009992, 0.99920064, 0.00009992;
  (x45_60, x_25, x45_60) 0.00009992, 0.00009992, 0.00009992, 0.00009992, 0.00009992, 0.00009992, 0.00009992, 0.00009992, 0.99920064;
  (x60_75, x_25, x45_60) 0.00009992, 0.00009992, 0.00009992, 0.00009992, 0.00009992, 0.00009992, 0.00009992, 0.00009992, 0.99920064;
  (x_75, x_25, x45_60) 0.00009992, 0.00009992, 0.00009992, 0.00009992, 0.00009992, 0.00009992, 0.00009992, 0.00009992, 0.99920064;
  (x0_15, x_20, x45_60) 0.00009992, 0.00009992, 0.00009992, 0.00009992, 0.00009992, 0.99920064, 0.00009992, 0.00009992, 0.00009992;
  (x15_30, x_20, x45_60) 0.00009992, 0.00009992, 0.00009992, 0.00009992, 0.00009992, 0.00009992, 0.99920064, 0.00009992, 0.00009992;
  (x30_45, x_20, x45_60) 0.00009992, 0.00009992, 0.00009992, 0.00009992, 0.00009992, 0.00009992, 0.00009992, 0.99920064, 0.00009992;
  (x45_60, x_20, x45_60) 0.00009992, 0.00009992, 0.00009992, 0.00009992, 0.00009992, 0.00009992, 0.00009992, 0.00009992, 0.99920064;
  (x60_75, x_20, x45_60) 0.00009992, 0.00009992, 0.00009992, 0.00009992, 0.00009992, 0.00009992, 0.00009992, 0.00009992, 0.99920064;
  (x_75, x_20, x45_60) 0.00009992, 0.00009992, 0.00009992, 0.00009992, 0.00009992, 0.00009992, 0.00009992, 0.00009992, 0.99920064;
  (x0_15, x_15, x45_60) 0.00009993, 0.00009993, 0.00009993, 0.00009993, 0.49965024, 0.49965024, 0.00009993, 0.00009993, 0.00009993;
  (x15_30, x_15, x45_60) 0.00009993, 0.00009993, 0.00009993, 0.00009993, 0.00009993, 0.49965024, 0.49965024, 0.00009993, 0.00009993;
  (x30_45, x_15, x45_60) 0.00009993, 0.00009993, 0.00009993, 0.00009993, 0.00009993, 0.00009993, 0.49965024, 0.49965024, 0.00009993;
  (x45_60, x_15, x45_60) 0.00009993, 0.00009993, 0.00009993, 0.00009993, 0.00009993, 0.00009993, 0.00009993, 0.49965024, 0.49965024;
  (x60_75, x_15, x45_60) 0.00009992, 0.00009992, 0.00009992, 0.00009992, 0.00009992, 0.00009992, 0.00009992, 0.00009992, 0.99920064;
  (x_75, x_15, x45_60) 0.00009992, 0.00009992, 0.00009992, 0.00009992, 0.00009992, 0.00009992, 0.00009992, 0.00009992, 0.99920064;
  (x0_15, x_10, x45_60) 0.00009992, 0.00009992, 0.00009992, 0.00009992, 0.99920064, 0.00009992, 0.00009992, 0.00009992, 0.00009992;
  (x15_30, x_10, x45_60) 0.00009992, 0.00009992, 0.00009992, 0.00009992, 0.00009992, 0.99920064, 0.00009992, 0.00009992, 0.00009992;
  (x30_45, x_10, x45_60) 0.00009992, 0.00009992, 0.00009992, 0.00009992, 0.00009992, 0.00009992, 0.99920064, 0.00009992, 0.00009992;
  (x45_60, x_10, x45_60) 0.00009992, 0.00009992, 0.00009992, 0.00009992, 0.00009992, 0.00009992, 0.00009992, 0.99920064, 0.00009992;
  (x60_75, x_10, x45_60) 0.00009992, 0.00009992, 0.00009992, 0.00009992, 0.00009992, 0.00009992, 0.00009992, 0.00009992, 0.99920064;
  (x_75, x_10, x45_60) 0.00009992, 0.00009992, 0.00009992, 0.00009992, 0.00009992, 0.00009992, 0.00009992, 0.00009992, 0.99920064;
  (x0_15, x_5, x45_60) 0.00009992, 0.00009992, 0.00009992, 0.00009992, 0.99920064, 0.00009992, 0.00009992, 0.00009992, 0.00009992;
  (x15_30, x_5, x45_60) 0.00009992, 0.00009992, 0.00009992, 0.00009992, 0.00009992, 0.99920064, 0.00009992, 0.00009992, 0.00009992;
  (x30_45, x_5, x45_60) 0.00009992, 0.00009992, 0.00009992, 0.00009992, 0.00009992, 0.00009992, 0.99920064, 0.00009992, 0.00009992;
  (x45_60, x_5, x45_60) 0.00009992, 0.00009992, 0.00009992, 0.00009992, 0.00009992, 0.00009992, 0.00009992, 0.99920064, 0.00009992;
  (x60_75, x_5, x45_60) 0.00009992, 0.00009992, 0.00009992, 0.00009992, 0.00009992, 0.00009992, 0.00009992, 0.00009992, 0.99920064;
  (x_75, x_5, x45_60) 0.00009992, 0.00009992, 0.00009992, 0.00009992, 0.00009992, 0.00009992, 0.00009992, 0.00009992, 0.99920064;
  (x0_15, x0, x45_60) 0.00009993, 0.00009993, 0.00009993, 0.49965024, 0.49965024, 0.00009993, 0.00009993, 0.00009993, 0.00009993;
  (x15_30, x0, x45_60) 0.00009993, 0.00009993, 0.00009993, 0.00009993, 0.49965024, 0.49965024, 0.00009993, 0.00009993, 0.00009993;
  (x30_45, x0, x45_60) 0.00009993, 0.00009993, 0.00009993, 0.00009993, 0.00009993, 0.49965024, 0.49965024, 0.00009993, 0.00009993;
  (x45_60, x0, x45_60) 0.00009993, 0.00009993, 0.00009993, 0.00009993, 0.00009993, 0.00009993, 0.49965024, 0.49965024, 0.00009993;
  (x60_75, x0, x45_60) 0.00009993, 0.00009993, 0.00009993, 0.00009993, 0.00009993, 0.00009993, 0.00009993, 0.49965024, 0.49965024;
  (x_75, x0, x45_60) 0.00009992, 0.00009992, 0.00009992, 0.00009992, 0.00009992, 0.00009992, 0.00009992, 0.00009992, 0.99920064;
  (x0_15, x5, x45_60) 0.00009992, 0.00009992, 0.00009992, 0.99920064, 0.00009992, 0.00009992, 0.00009992, 0.00009992, 0.00009992;
  (x15_30, x5, x45_60) 0.00009992, 0.00009992, 0.00009992, 0.00009992, 0.99920064, 0.00009992, 0.00009992, 0.00009992, 0.00009992;
  (x30_45, x5, x45_60) 0.00009992, 0.00009992, 0.00009992, 0.00009992, 0.00009992, 0.99920064, 0.00009992, 0.00009992, 0.00009992;
  (x45_60, x5, x45_60) 0.00009992, 0.00009992, 0.00009992, 0.00009992, 0.00009992, 0.00009992, 0.99920064, 0.00009992, 0.00009992;
  (x60_75, x5, x45_60) 0.00009992, 0.00009992, 0.00009992, 0.00009992, 0.00009992, 0.00009992, 0.00009992, 0.99920064, 0.00009992;
  (x_75, x5, x45_60) 0.00009992, 0.00009992, 0.00009992, 0.00009992, 0.00009992, 0.00009992, 0.00009992, 0.00009992, 0.99920064;
  (x0_15, x10, x45_60) 0.00009992, 0.00009992, 0.00009992, 0.99920064, 0.00009992, 0.00009992, 0.00009992, 0.00009992, 0.00009992;
  (x15_30, x10, x45_60) 0.00009992, 0.00009992, 0.00009992, 0.00009992, 0.99920064, 0.00009992, 0.00009992, 0.00009992, 0.00009992;
  (x30_45, x10, x45_60) 0.00009992, 0.00009992, 0.00009992, 0.00009992, 0.00009992, 0.99920064, 0.00009992, 0.00009992, 0.00009992;
  (x45_60, x10, x45_60) 0.00009992, 0.00009992, 0.00009992, 0.00009992, 0.00009992, 0.00009992, 0.99920064, 0.00009992, 0.00009992;
  (x60_75, x10, x45_60) 0.00009992, 0.00009992, 0.00009992, 0.00009992, 0.00009992, 0.00009992, 0.00009992, 0.99920064, 0.00009992;
  (x_75, x10, x45_60) 0.00009992, 0.00009992, 0.00009992, 0.00009992, 0.00009992, 0.00009992, 0.00009992, 0.00009992, 0.99920064;
  (x0_15, x15, x45_60) 0.00009993, 0.00009993, 0.49965024, 0.49965024, 0.00009993, 0.00009993, 0.00009993, 0.00009993, 0.00009993;
  (x15_30, x15, x45_60) 0.00009993, 0.00009993, 0.00009993, 0.49965024, 0.49965024, 0.00009993, 0.00009993, 0.00009993, 0.00009993;
  (x30_45, x15, x45_60) 0.00009993, 0.00009993, 0.00009993, 0.00009993, 0.49965024, 0.49965024, 0.00009993, 0.00009993, 0.00009993;
  (x45_60, x15, x45_60) 0.00009993, 0.00009993, 0.00009993, 0.00009993, 0.00009993, 0.49965024, 0.49965024, 0.00009993, 0.00009993;
  (x60_75, x15, x45_60) 0.00009993, 0.00009993, 0.00009993, 0.00009993, 0.00009993, 0.00009993, 0.49965024, 0.49965024, 0.00009993;
  (x_75, x15, x45_60) 0.00009992, 0.00009992, 0.00009992, 0.00009992, 0.00009992, 0.00009992, 0.00009992, 0.00009992, 0.99920064;
  (x0_15, x20, x45_60) 0.00009992, 0.00009992, 0.99920064, 0.00009992, 0.00009992, 0.00009992, 0.00009992, 0.00009992, 0.00009992;
  (x15_30, x20, x45_60) 0.00009992, 0.00009992, 0.00009992, 0.99920064, 0.00009992, 0.00009992, 0.00009992, 0.00009992, 0.00009992;
  (x30_45, x20, x45_60) 0.00009992, 0.00009992, 0.00009992, 0.00009992, 0.99920064, 0.00009992, 0.00009992, 0.00009992, 0.00009992;
  (x45_60, x20, x45_60) 0.00009992, 0.00009992, 0.00009992, 0.00009992, 0.00009992, 0.99920064, 0.00009992, 0.00009992, 0.00009992;
  (x60_75, x20, x45_60) 0.00009992, 0.00009992, 0.00009992, 0.00009992, 0.00009992, 0.00009992, 0.99920064, 0.00009992, 0.00009992;
  (x_75, x20, x45_60) 0.00009992, 0.00009992, 0.00009992, 0.00009992, 0.00009992, 0.00009992, 0.00009992, 0.99920064, 0.00009992;
  (x0_15, x25, x45_60) 0.00009992, 0.00009992, 0.99920064, 0.00009992, 0.00009992, 0.00009992, 0.00009992, 0.00009992, 0.00009992;
  (x15_30, x25, x45_60) 0.00009992, 0.00009992, 0.00009992, 0.99920064, 0.00009992, 0.00009992, 0.00009992, 0.00009992, 0.00009992;
  (x30_45, x25, x45_60) 0.00009992, 0.00009992, 0.00009992, 0.00009992, 0.99920064, 0.00009992, 0.00009992, 0.00009992, 0.00009992;
  (x45_60, x25, x45_60) 0.00009992, 0.00009992, 0.00009992, 0.00009992, 0.00009992, 0.99920064, 0.00009992, 0.00009992, 0.00009992;
  (x60_75, x25, x45_60) 0.00009992, 0.00009992, 0.00009992, 0.00009992, 0.00009992, 0.00009992, 0.99920064, 0.00009992, 0.00009992;
  (x_75, x25, x45_60) 0.00009992, 0.00009992, 0.00009992, 0.00009992, 0.00009992, 0.00009992, 0.00009992, 0.99920064, 0.00009992;
  (x0_15, x_25, x60_75) 0.00009992, 0.00009992, 0.00009992, 0.00009992, 0.00009992, 0.00009992, 0.99920064, 0.00009992, 0.00009992;
  (x15_30, x_25, x60_75) 0.00009992, 0.00009992, 0.00009992, 0.00009992, 0.00009992, 0.00009992, 0.00009992, 0.99920064, 0.00009992;
  (x30_45, x_25, x60_75) 0.00009992, 0.00009992, 0.00009992, 0.00009992, 0.00009992, 0.00009992, 0.00009992, 0.00009992, 0.99920064;
  (x45_60, x_25, x60_75) 0.00009992, 0.00009992, 0.00009992, 0.00009992, 0.00009992, 0.00009992, 0.00009992, 0.00009992, 0.99920064;
  (x60_75, x_25, x60_75) 0.00009992, 0.00009992, 0.00009992, 0.00009992, 0.00009992, 0.00009992, 0.00009992, 0.00009992, 0.99920064;
  (x_75, x_25, x60_75) 0.00009992, 0.00009992, 0.00009992, 0.00009992, 0.00009992, 0.00009992, 0.00009992, 0.00009992, 0.99920064;
  (x0_15, x_20, x60_75) 0.00009992, 0.00009992, 0.00009992, 0.00009992, 0.00009992, 0.00009992, 0.99920064, 0.00009992, 0.00009992;
  (x15_30, x_20, x60_75) 0.00009992, 0.00009992, 0.00009992, 0.00009992, 0.00009992, 0.00009992, 0.00009992, 0.99920064, 0.00009992;
  (x30_45, x_20, x60_75) 0.00009992, 0.00009992, 0.00009992, 0.00009992, 0.00009992, 0.00009992, 0.00009992, 0.00009992, 0.99920064;
  (x45_60, x_20, x60_75) 0.00009992, 0.00009992, 0.00009992, 0.00009992, 0.00009992, 0.00009992, 0.00009992, 0.00009992, 0.99920064;
  (x60_75, x_20, x60_75) 0.00009992, 0.00009992, 0.00009992, 0.00009992, 0.00009992, 0.00009992, 0.00009992, 0.00009992, 0.99920064;
  (x_75, x_20, x60_75) 0.00009992, 0.00009992, 0.00009992, 0.00009992, 0.00009992, 0.00009992, 0.00009992, 0.00009992, 0.99920064;
  (x0_15, x_15, x60_75) 0.00009993, 0.00009993, 0.00009993, 0.00009993, 0.00009993, 0.49965024, 0.49965024, 0.00009993, 0.00009993;
  (x15_30, x_15, x60_75) 0.00009993, 0.00009993, 0.00009993, 0.00009993, 0.00009993, 0.00009993, 0.49965024, 0.49965024, 0.00009993;
  (x30_45, x_15, x60_75) 0.00009993, 0.00009993, 0.00009993, 0.00009993, 0.00009993, 0.00009993, 0.00009993, 0.49965024, 0.49965024;
  (x45_60, x_15, x60_75) 0.00009992, 0.00009992, 0.00009992, 0.00009992, 0.00009992, 0.00009992, 0.00009992, 0.00009992, 0.99920064;
  (x60_75, x_15, x60_75) 0.00009992, 0.00009992, 0.00009992, 0.00009992, 0.00009992, 0.00009992, 0.00009992, 0.00009992, 0.99920064;
  (x_75, x_15, x60_75) 0.00009992, 0.00009992, 0.00009992, 0.00009992, 0.00009992, 0.00009992, 0.00009992, 0.00009992, 0.99920064;
  (x0_15, x_10, x60_75) 0.00009992, 0.00009992, 0.00009992, 0.00009992, 0.00009992, 0.99920064, 0.00009992, 0.00009992, 0.00009992;
  (x15_30, x_10, x60_75) 0.00009992, 0.00009992, 0.00009992, 0.00009992, 0.00009992, 0.00009992, 0.99920064, 0.00009992, 0.00009992;
  (x30_45, x_10, x60_75) 0.00009992, 0.00009992, 0.00009992, 0.00009992, 0.00009992, 0.00009992, 0.00009992, 0.99920064, 0.00009992;
  (x45_60, x_10, x60_75) 0.00009992, 0.00009992, 0.00009992, 0.00009992, 0.00009992, 0.00009992, 0.00009992, 0.00009992, 0.99920064;
  (x60_75, x_10, x60_75) 0.00009992, 0.00009992, 0.00009992, 0.00009992, 0.00009992, 0.00009992, 0.00009992, 0.00009992, 0.99920064;
  (x_75, x_10, x60_75) 0.00009992, 0.00009992, 0.00009992, 0.00009992, 0.00009992, 0.00009992, 0.00009992, 0.00009992, 0.99920064;
  (x0_15, x_5, x60_75) 0.00009992, 0.00009992, 0.00009992, 0.00009992, 0.00009992, 0.99920064, 0.00009992, 0.00009992, 0.00009992;
  (x15_30, x_5, x60_75) 0.00009992, 0.00009992, 0.00009992, 0.00009992, 0.00009992, 0.00009992, 0.99920064, 0.00009992, 0.00009992;
  (x30_45, x_5, x60_75) 0.00009992, 0.00009992, 0.00009992, 0.00009992, 0.00009992, 0.00009992, 0.00009992, 0.99920064, 0.00009992;
  (x45_60, x_5, x60_75) 0.00009992, 0.00009992, 0.00009992, 0.00009992, 0.00009992, 0.00009992, 0.00009992, 0.00009992, 0.99920064;
  (x60_75, x_5, x60_75) 0.00009992, 0.00009992, 0.00009992, 0.00009992, 0.00009992, 0.00009992, 0.00009992, 0.00009992, 0.99920064;
  (x_75, x_5, x60_75) 0.00009992, 0.00009992, 0.00009992, 0.00009992, 0.00009992, 0.00009992, 0.00009992, 0.00009992, 0.99920064;
  (x0_15, x0, x60_75) 0.00009993, 0.00009993, 0.00009993, 0.00009993, 0.49965024, 0.49965024, 0.00009993, 0.00009993, 0.00009993;
  (x15_30, x0, x60_75) 0.00009993, 0.00009993, 0.00009993, 0.00009993, 0.00009993, 0.49965024, 0.49965024, 0.00009993, 0.00009993;
  (x30_45, x0, x60_75) 0.00009993, 0.00009993, 0.00009993, 0.00009993, 0.00009993, 0.00009993, 0.49965024, 0.49965024, 0.00009993;
  (x45_60, x0, x60_75) 0.00009993, 0.00009993, 0.00009993, 0.00009993, 0.00009993, 0.00009993, 0.00009993, 0.49965024, 0.49965024;
  (x60_75, x0, x60_75) 0.00009992, 0.00009992, 0.00009992, 0.00009992, 0.00009992, 0.00009992, 0.00009992, 0.00009992, 0.99920064;
  (x_75, x0, x60_75) 0.00009992, 0.00009992, 0.00009992, 0.00009992, 0.00009992, 0.00009992, 0.00009992, 0.00009992, 0.99920064;
  (x0_15, x5, x60_75) 0.00009992, 0.00009992, 0.00009992, 0.00009992, 0.99920064, 0.00009992, 0.00009992, 0.00009992, 0.00009992;
  (x15_30, x5, x60_75) 0.00009992, 0.00009992, 0.00009992, 0.00009992, 0.00009992, 0.99920064, 0.00009992, 0.00009992, 0.00009992;
  (x30_45, x5, x60_75) 0.00009992, 0.00009992, 0.00009992, 0.00009992, 0.00009992, 0.00009992, 0.99920064, 0.00009992, 0.00009992;
  (x45_60, x5, x60_75) 0.00009992, 0.00009992, 0.00009992, 0.00009992, 0.00009992, 0.00009992, 0.00009992, 0.99920064, 0.00009992;
  (x60_75, x5, x60_75) 0.00009992, 0.00009992, 0.00009992, 0.00009992, 0.00009992, 0.00009992, 0.00009992, 0.00009992, 0.99920064;
  (x_75, x5, x60_75) 0.00009992, 0.00009992, 0.00009992, 0.00009992, 0.00009992, 0.00009992, 0.00009992, 0.00009992, 0.99920064;
  (x0_15, x10, x60_75) 0.00009992, 0.00009992, 0.00009992, 0.00009992, 0.99920064, 0.00009992, 0.00009992, 0.00009992, 0.00009992;
  (x15_30, x10, x60_75) 0.00009992, 0.00009992, 0.00009992, 0.00009992, 0.00009992, 0.99920064, 0.00009992, 0.00009992, 0.00009992;
  (x30_45, x10, x60_75) 0.00009992, 0.00009992, 0.00009992, 0.00009992, 0.00009992, 0.00009992, 0.99920064, 0.00009992, 0.00009992;
  (x45_60, x10, x60_75) 0.00009992, 0.00009992, 0.00009992, 0.00009992, 0.00009992, 0.00009992, 0.00009992, 0.99920064, 0.00009992;
  (x60_75, x10, x60_75) 0.00009992, 0.00009992, 0.00009992, 0.00009992, 0.00009992, 0.00009992, 0.00009992, 0.00009992, 0.99920064;
  (x_75, x10, x60_75) 0.00009992, 0.00009992, 0.00009992, 0.00009992, 0.00009992, 0.00009992, 0.00009992, 0.00009992, 0.99920064;
  (x0_15, x15, x60_75) 0.00009993, 0.00009993, 0.00009993, 0.49965024, 0.49965024, 0.00009993, 0.00009993, 0.00009993, 0.00009993;
  (x15_30, x15, x60_75) 0.00009993, 0.00009993, 0.00009993, 0.00009993, 0.49965024, 0.49965024, 0.00009993, 0.00009993, 0.00009993;
  (x30_45, x15, x60_75) 0.00009993, 0.00009993, 0.00009993, 0.00009993, 0.00009993, 0.49965024, 0.49965024, 0.00009993, 0.00009993;
  (x45_60, x15, x60_75) 0.00009993, 0.00009993, 0.00009993, 0.00009993, 0.00009993, 0.00009993, 0.49965024, 0.49965024, 0.00009993;
  (x60_75, x15, x60_75) 0.00009993, 0.00009993, 0.00009993, 0.00009993, 0.00009993, 0.00009993, 0.00009993, 0.49965024, 0.49965024;
  (x_75, x15, x60_75) 0.00009992, 0.00009992, 0.00009992, 0.00009992, 0.00009992, 0.00009992, 0.00009992, 0.00009992, 0.99920064;
  (x0_15, x20, x60_75) 0.00009992, 0.00009992, 0.00009992, 0.99920064, 0.00009992, 0.00009992, 0.00009992, 0.00009992, 0.00009992;
  (x15_30, x20, x60_75) 0.00009992, 0.00009992, 0.00009992, 0.00009992, 0.99920064, 0.00009992, 0.00009992, 0.00009992, 0.00009992;
  (x30_45, x20, x60_75) 0.00009992, 0.00009992, 0.00009992, 0.00009992, 0.00009992, 0.99920064, 0.00009992, 0.00009992, 0.00009992;
  (x45_60, x20, x60_75) 0.00009992, 0.00009992, 0.00009992, 0.00009992, 0.00009992, 0.00009992, 0.99920064, 0.00009992, 0.00009992;
  (x60_75, x20, x60_75) 0.00009992, 0.00009992, 0.00009992, 0.00009992, 0.00009992, 0.00009992, 0.00009992, 0.99920064, 0.00009992;
  (x_75, x20, x60_75) 0.00009992, 0.00009992, 0.00009992, 0.00009992, 0.00009992, 0.00009992, 0.00009992, 0.00009992, 0.99920064;
  (x0_15, x25, x60_75) 0.00009992, 0.00009992, 0.00009992, 0.99920064, 0.00009992, 0.00009992, 0.00009992, 0.00009992, 0.00009992;
  (x15_30, x25, x60_75) 0.00009992, 0.00009992, 0.00009992, 0.00009992, 0.99920064, 0.00009992, 0.00009992, 0.00009992, 0.00009992;
  (x30_45, x25, x60_75) 0.00009992, 0.00009992, 0.00009992, 0.00009992, 0.00009992, 0.99920064, 0.00009992, 0.00009992, 0.00009992;
  (x45_60, x25, x60_75) 0.00009992, 0.00009992, 0.00009992, 0.00009992, 0.00009992, 0.00009992, 0.99920064, 0.00009992, 0.00009992;
  (x60_75, x25, x60_75) 0.00009992, 0.00009992, 0.00009992, 0.00009992, 0.00009992, 0.00009992, 0.00009992, 0.99920064, 0.00009992;
  (x_75, x25, x60_75) 0.00009992, 0.00009992, 0.00009992, 0.00009992, 0.00009992, 0.00009992, 0.00009992, 0.00009992, 0.99920064;
  (x0_15, x_25, x75_90) 0.00009992, 0.00009992, 0.00009992, 0.00009992, 0.00009992, 0.00009992, 0.00009992, 0.99920064, 0.00009992;
  (x15_30, x_25, x75_90) 0.00009992, 0.00009992, 0.00009992, 0.00009992, 0.00009992, 0.00009992, 0.00009992, 0.00009992, 0.99920064;
  (x30_45, x_25, x75_90) 0.00009992, 0.00009992, 0.00009992, 0.00009992, 0.00009992, 0.00009992, 0.00009992, 0.00009992, 0.99920064;
  (x45_60, x_25, x75_90) 0.00009992, 0.00009992, 0.00009992, 0.00009992, 0.00009992, 0.00009992, 0.00009992, 0.00009992, 0.99920064;
  (x60_75, x_25, x75_90) 0.00009992, 0.00009992, 0.00009992, 0.00009992, 0.00009992, 0.00009992, 0.00009992, 0.00009992, 0.99920064;
  (x_75, x_25, x75_90) 0.00009992, 0.00009992, 0.00009992, 0.00009992, 0.00009992, 0.00009992, 0.00009992, 0.00009992, 0.99920064;
  (x0_15, x_20, x75_90) 0.00009992, 0.00009992, 0.00009992, 0.00009992, 0.00009992, 0.00009992, 0.00009992, 0.99920064, 0.00009992;
  (x15_30, x_20, x75_90) 0.00009992, 0.00009992, 0.00009992, 0.00009992, 0.00009992, 0.00009992, 0.00009992, 0.00009992, 0.99920064;
  (x30_45, x_20, x75_90) 0.00009992, 0.00009992, 0.00009992, 0.00009992, 0.00009992, 0.00009992, 0.00009992, 0.00009992, 0.99920064;
  (x45_60, x_20, x75_90) 0.00009992, 0.00009992, 0.00009992, 0.00009992, 0.00009992, 0.00009992, 0.00009992, 0.00009992, 0.99920064;
  (x60_75, x_20, x75_90) 0.00009992, 0.00009992, 0.00009992, 0.00009992, 0.00009992, 0.00009992, 0.00009992, 0.00009992, 0.99920064;
  (x_75, x_20, x75_90) 0.00009992, 0.00009992, 0.00009992, 0.00009992, 0.00009992, 0.00009992, 0.00009992, 0.00009992, 0.99920064;
  (x0_15, x_15, x75_90) 0.00009993, 0.00009993, 0.00009993, 0.00009993, 0.00009993, 0.00009993, 0.49965024, 0.49965024, 0.00009993;
  (x15_30, x_15, x75_90) 0.00009993, 0.00009993, 0.00009993, 0.00009993, 0.00009993, 0.00009993, 0.00009993, 0.49965024, 0.49965024;
  (x30_45, x_15, x75_90) 0.00009992, 0.00009992, 0.00009992, 0.00009992, 0.00009992, 0.00009992, 0.00009992, 0.00009992, 0.99920064;
  (x45_60, x_15, x75_90) 0.00009992, 0.00009992, 0.00009992, 0.00009992, 0.00009992, 0.00009992, 0.00009992, 0.00009992, 0.99920064;
  (x60_75, x_15, x75_90) 0.00009992, 0.00009992, 0.00009992, 0.00009992, 0.00009992, 0.00009992, 0.00009992, 0.00009992, 0.99920064;
  (x_75, x_15, x75_90) 0.00009992, 0.00009992, 0.00009992, 0.00009992, 0.00009992, 0.00009992, 0.00009992, 0.00009992, 0.99920064;
  (x0_15, x_10, x75_90) 0.00009992, 0.00009992, 0.00009992, 0.00009992, 0.00009992, 0.00009992, 0.99920064, 0.00009992, 0.00009992;
  (x15_30, x_10, x75_90) 0.00009992, 0.00009992, 0.00009992, 0.00009992, 0.00009992, 0.00009992, 0.00009992, 0.99920064, 0.00009992;
  (x30_45, x_10, x75_90) 0.00009992, 0.00009992, 0.00009992, 0.00009992, 0.00009992, 0.00009992, 0.00009992, 0.00009992, 0.99920064;
  (x45_60, x_10, x75_90) 0.00009992, 0.00009992, 0.00009992, 0.00009992, 0.00009992, 0.00009992, 0.00009992, 0.00009992, 0.99920064;
  (x60_75, x_10, x75_90) 0.00009992, 0.00009992, 0.00009992, 0.00009992, 0.00009992, 0.00009992, 0.00009992, 0.00009992, 0.99920064;
  (x_75, x_10, x75_90) 0.00009992, 0.00009992, 0.00009992, 0.00009992, 0.00009992, 0.00009992, 0.00009992, 0.00009992, 0.99920064;
  (x0_15, x_5, x75_90) 0.00009992, 0.00009992, 0.00009992, 0.00009992, 0.00009992, 0.00009992, 0.99920064, 0.00009992, 0.00009992;
  (x15_30, x_5, x75_90) 0.00009992, 0.00009992, 0.00009992, 0.00009992, 0.00009992, 0.00009992, 0.00009992, 0.99920064, 0.00009992;
  (x30_45, x_5, x75_90) 0.00009992, 0.00009992, 0.00009992, 0.00009992, 0.00009992, 0.00009992, 0.00009992, 0.00009992, 0.99920064;
  (x45_60, x_5, x75_90) 0.00009992, 0.00009992, 0.00009992, 0.00009992, 0.00009992, 0.00009992, 0.00009992, 0.00009992, 0.99920064;
  (x60_75, x_5, x75_90) 0.00009992, 0.00009992, 0.00009992, 0.00009992, 0.00009992, 0.00009992, 0.00009992, 0.00009992, 0.99920064;
  (x_75, x_5, x75_90) 0.00009992, 0.00009992, 0.00009992, 0.00009992, 0.00009992, 0.00009992, 0.00009992, 0.00009992, 0.99920064;
  (x0_15, x0, x75_90) 0.00009993, 0.00009993, 0.00009993, 0.00009993, 0.00009993, 0.49965024, 0.49965024, 0.00009993, 0.00009993;
  (x15_30, x0, x75_90) 0.00009993, 0.00009993, 0.00009993, 0.00009993, 0.00009993, 0.00009993, 0.49965024, 0.49965024, 0.00009993;
  (x30_45, x0, x75_90) 0.00009993, 0.00009993, 0.00009993, 0.00009993, 0.00009993, 0.00009993, 0.00009993, 0.49965024, 0.49965024;
  (x45_60, x0, x75_90) 0.00009992, 0.00009992, 0.00009992, 0.00009992, 0.00009992, 0.00009992, 0.00009992, 0.00009992, 0.99920064;
  (x60_75, x0, x75_90) 0.00009992, 0.00009992, 0.00009992, 0.00009992, 0.00009992, 0.00009992, 0.00009992, 0.00009992, 0.99920064;
  (x_75, x0, x75_90) 0.00009992, 0.00009992, 0.00009992, 0.00009992, 0.00009992, 0.00009992, 0.00009992, 0.00009992, 0.99920064;
  (x0_15, x5, x75_90) 0.00009992, 0.00009992, 0.00009992, 0.00009992, 0.00009992, 0.99920064, 0.00009992, 0.00009992, 0.00009992;
  (x15_30, x5, x75_90) 0.00009992, 0.00009992, 0.00009992, 0.00009992, 0.00009992, 0.00009992, 0.99920064, 0.00009992, 0.00009992;
  (x30_45, x5, x75_90) 0.00009992, 0.00009992, 0.00009992, 0.00009992, 0.00009992, 0.00009992, 0.00009992, 0.99920064, 0.00009992;
  (x45_60, x5, x75_90) 0.00009992, 0.00009992, 0.00009992, 0.00009992, 0.00009992, 0.00009992, 0.00009992, 0.00009992, 0.99920064;
  (x60_75, x5, x75_90) 0.00009992, 0.00009992, 0.00009992, 0.00009992, 0.00009992, 0.00009992, 0.00009992, 0.00009992, 0.99920064;
  (x_75, x5, x75_90) 0.00009992, 0.00009992, 0.00009992, 0.00009992, 0.00009992, 0.00009992, 0.00009992, 0.00009992, 0.99920064;
  (x0_15, x10, x75_90) 0.00009992, 0.00009992, 0.00009992, 0.00009992, 0.00009992, 0.99920064, 0.00009992, 0.00009992, 0.00009992;
  (x15_30, x10, x75_90) 0.00009992, 0.00009992, 0.00009992, 0.00009992, 0.00009992, 0.00009992, 0.99920064, 0.00009992, 0.00009992;
  (x30_45, x10, x75_90) 0.00009992, 0.00009992, 0.00009992, 0.00009992, 0.00009992, 0.00009992, 0.00009992, 0.99920064, 0.00009992;
  (x45_60, x10, x75_90) 0.00009992, 0.00009992, 0.00009992, 0.00009992, 0.00009992, 0.00009992, 0.00009992, 0.00009992, 0.99920064;
  (x60_75, x10, x75_90) 0.00009992, 0.00009992, 0.00009992, 0.00009992, 0.00009992, 0.00009992, 0.00009992, 0.00009992, 0.99920064;
  (x_75, x10, x75_90) 0.00009992, 0.00009992, 0.00009992, 0.00009992, 0.00009992, 0.00009992, 0.00009992, 0.00009992, 0.99920064;
  (x0_15, x15, x75_90) 0.00009993, 0.00009993, 0.00009993, 0.00009993, 0.49965024, 0.49965024, 0.00009993, 0.00009993, 0.00009993;
  (x15_30, x15, x75_90) 0.00009993, 0.00009993, 0.00009993, 0.00009993, 0.00009993, 0.49965024, 0.49965024, 0.00009993, 0.00009993;
  (x30_45, x15, x75_90) 0.00009993, 0.00009993, 0.00009993, 0.00009993, 0.00009993, 0.00009993, 0.49965024, 0.49965024, 0.00009993;
  (x45_60, x15, x75_90) 0.00009993, 0.00009993, 0.00009993, 0.00009993, 0.00009993, 0.00009993, 0.00009993, 0.49965024, 0.49965024;
  (x60_75, x15, x75_90) 0.00009992, 0.00009992, 0.00009992, 0.00009992, 0.00009992, 0.00009992, 0.00009992, 0.00009992, 0.99920064;
  (x_75, x15, x75_90) 0.00009992, 0.00009992, 0.00009992, 0.00009992, 0.00009992, 0.00009992, 0.00009992, 0.00009992, 0.99920064;
  (x0_15, x20, x75_90) 0.00009992, 0.00009992, 0.00009992, 0.00009992, 0.99920064, 0.00009992, 0.00009992, 0.00009992, 0.00009992;
  (x15_30, x20, x75_90) 0.00009992, 0.00009992, 0.00009992, 0.00009992, 0.00009992, 0.99920064, 0.00009992, 0.00009992, 0.00009992;
  (x30_45, x20, x75_90) 0.00009992, 0.00009992, 0.00009992, 0.00009992, 0.00009992, 0.00009992, 0.99920064, 0.00009992, 0.00009992;
  (x45_60, x20, x75_90) 0.00009992, 0.00009992, 0.00009992, 0.00009992, 0.00009992, 0.00009992, 0.00009992, 0.99920064, 0.00009992;
  (x60_75, x20, x75_90) 0.00009992, 0.00009992, 0.00009992, 0.00009992, 0.00009992, 0.00009992, 0.00009992, 0.00009992, 0.99920064;
  (x_75, x20, x75_90) 0.00009992, 0.00009992, 0.00009992, 0.00009992, 0.00009992, 0.00009992, 0.00009992, 0.00009992, 0.99920064;
  (x0_15, x25, x75_90) 0.00009992, 0.00009992, 0.00009992, 0.00009992, 0.99920064, 0.00009992, 0.00009992, 0.00009992, 0.00009992;
  (x15_30, x25, x75_90) 0.00009992, 0.00009992, 0.00009992, 0.00009992, 0.00009992, 0.99920064, 0.00009992, 0.00009992, 0.00009992;
  (x30_45, x25, x75_90) 0.00009992, 0.00009992, 0.00009992, 0.00009992, 0.00009992, 0.00009992, 0.99920064, 0.00009992, 0.00009992;
  (x45_60, x25, x75_90) 0.00009992, 0.00009992, 0.00009992, 0.00009992, 0.00009992, 0.00009992, 0.00009992, 0.99920064, 0.00009992;
  (x60_75, x25, x75_90) 0.00009992, 0.00009992, 0.00009992, 0.00009992, 0.00009992, 0.00009992, 0.00009992, 0.00009992, 0.99920064;
  (x_75, x25, x75_90) 0.00009992, 0.00009992, 0.00009992, 0.00009992, 0.00009992, 0.00009992, 0.00009992, 0.00009992, 0.99920064;
  (x0_15, x_25, x90_105) 0.00009992, 0.00009992, 0.00009992, 0.00009992, 0.00009992, 0.00009992, 0.00009992, 0.00009992, 0.99920064;
  (x15_30, x_25, x90_105) 0.00009992, 0.00009992, 0.00009992, 0.00009992, 0.00009992, 0.00009992, 0.00009992, 0.00009992, 0.99920064;
  (x30_45, x_25, x90_105) 0.00009992, 0.00009992, 0.00009992, 0.00009992, 0.00009992, 0.00009992, 0.00009992, 0.00009992, 0.99920064;
  (x45_60, x_25, x90_105) 0.00009992, 0.00009992, 0.00009992, 0.00009992, 0.00009992, 0.00009992, 0.00009992, 0.00009992, 0.99920064;
  (x60_75, x_25, x90_105) 0.00009992, 0.00009992, 0.00009992, 0.00009992, 0.00009992, 0.00009992, 0.00009992, 0.00009992, 0.99920064;
  (x_75, x_25, x90_105) 0.00009992, 0.00009992, 0.00009992, 0.00009992, 0.00009992, 0.00009992, 0.00009992, 0.00009992, 0.99920064;
  (x0_15, x_20, x90_105) 0.00009992, 0.00009992, 0.00009992, 0.00009992, 0.00009992, 0.00009992, 0.00009992, 0.00009992, 0.99920064;
  (x15_30, x_20, x90_105) 0.00009992, 0.00009992, 0.00009992, 0.00009992, 0.00009992, 0.00009992, 0.00009992, 0.00009992, 0.99920064;
  (x30_45, x_20, x90_105) 0.00009992, 0.00009992, 0.00009992, 0.00009992, 0.00009992, 0.00009992, 0.00009992, 0.00009992, 0.99920064;
  (x45_60, x_20, x90_105) 0.00009992, 0.00009992, 0.00009992, 0.00009992, 0.00009992, 0.00009992, 0.00009992, 0.00009992, 0.99920064;
  (x60_75, x_20, x90_105) 0.00009992, 0.00009992, 0.00009992, 0.00009992, 0.00009992, 0.00009992, 0.00009992, 0.00009992, 0.99920064;
  (x_75, x_20, x90_105) 0.00009992, 0.00009992, 0.00009992, 0.00009992, 0.00009992, 0.00009992, 0.00009992, 0.00009992, 0.99920064;
  (x0_15, x_15, x90_105) 0.00009993, 0.00009993, 0.00009993, 0.00009993, 0.00009993, 0.00009993, 0.00009993, 0.49965024, 0.49965024;
  (x15_30, x_15, x90_105) 0.00009992, 0.00009992, 0.00009992, 0.00009992, 0.00009992, 0.00009992, 0.00009992, 0.00009992, 0.99920064;
  (x30_45, x_15, x90_105) 0.00009992, 0.00009992, 0.00009992, 0.00009992, 0.00009992, 0.00009992, 0.00009992, 0.00009992, 0.99920064;
  (x45_60, x_15, x90_105) 0.00009992, 0.00009992, 0.00009992, 0.00009992, 0.00009992, 0.00009992, 0.00009992, 0.00009992, 0.99920064;
  (x60_75, x_15, x90_105) 0.00009992, 0.00009992, 0.00009992, 0.00009992, 0.00009992, 0.00009992, 0.00009992, 0.00009992, 0.99920064;
  (x_75, x_15, x90_105) 0.00009992, 0.00009992, 0.00009992, 0.00009992, 0.00009992, 0.00009992, 0.00009992, 0.00009992, 0.99920064;
  (x0_15, x_10, x90_105) 0.00009992, 0.00009992, 0.00009992, 0.00009992, 0.00009992, 0.00009992, 0.00009992, 0.99920064, 0.00009992;
  (x15_30, x_10, x90_105) 0.00009992, 0.00009992, 0.00009992, 0.00009992, 0.00009992, 0.00009992, 0.00009992, 0.00009992, 0.99920064;
  (x30_45, x_10, x90_105) 0.00009992, 0.00009992, 0.00009992, 0.00009992, 0.00009992, 0.00009992, 0.00009992, 0.00009992, 0.99920064;
  (x45_60, x_10, x90_105) 0.00009992, 0.00009992, 0.00009992, 0.00009992, 0.00009992, 0.00009992, 0.00009992, 0.00009992, 0.99920064;
  (x60_75, x_10, x90_105) 0.00009992, 0.00009992, 0.00009992, 0.00009992, 0.00009992, 0.00009992, 0.00009992, 0.00009992, 0.99920064;
  (x_75, x_10, x90_105) 0.00009992, 0.00009992, 0.00009992, 0.00009992, 0.00009992, 0.00009992, 0.00009992, 0.00009992, 0.99920064;
  (x0_15, x_5, x90_105) 0.00009992, 0.00009992, 0.00009992, 0.00009992, 0.00009992, 0.00009992, 0.00009992, 0.99920064, 0.00009992;
  (x15_30, x_5, x90_105) 0.00009992, 0.00009992, 0.00009992, 0.00009992, 0.00009992, 0.00009992, 0.00009992, 0.00009992, 0.99920064;
  (x30_45, x_5, x90_105) 0.00009992, 0.00009992, 0.00009992, 0.00009992, 0.00009992, 0.00009992, 0.00009992, 0.00009992, 0.99920064;
  (x45_60, x_5, x90_105) 0.00009992, 0.00009992, 0.00009992, 0.00009992, 0.00009992, 0.00009992, 0.00009992, 0.00009992, 0.99920064;
  (x60_75, x_5, x90_105) 0.00009992, 0.00009992, 0.00009992, 0.00009992, 0.00009992, 0.00009992, 0.00009992, 0.00009992, 0.99920064;
  (x_75, x_5, x90_105) 0.00009992, 0.00009992, 0.00009992, 0.00009992, 0.00009992, 0.00009992, 0.00009992, 0.00009992, 0.99920064;
  (x0_15, x0, x90_105) 0.00009993, 0.00009993, 0.00009993, 0.00009993, 0.00009993, 0.00009993, 0.49965024, 0.49965024, 0.00009993;
  (x15_30, x0, x90_105) 0.00009993, 0.00009993, 0.00009993, 0.00009993, 0.00009993, 0.00009993, 0.00009993, 0.49965024, 0.49965024;
  (x30_45, x0, x90_105) 0.00009992, 0.00009992, 0.00009992, 0.00009992, 0.00009992, 0.00009992, 0.00009992, 0.00009992, 0.99920064;
  (x45_60, x0, x90_105) 0.00009992, 0.00009992, 0.00009992, 0.00009992, 0.00009992, 0.00009992, 0.00009992, 0.00009992, 0.99920064;
  (x60_75, x0, x90_105) 0.00009992, 0.00009992, 0.00009992, 0.00009992, 0.00009992, 0.00009992, 0.00009992, 0.00009992, 0.99920064;
  (x_75, x0, x90_105) 0.00009992, 0.00009992, 0.00009992, 0.00009992, 0.00009992, 0.00009992, 0.00009992, 0.00009992, 0.99920064;
  (x0_15, x5, x90_105) 0.00009992, 0.00009992, 0.00009992, 0.00009992, 0.00009992, 0.00009992, 0.99920064, 0.00009992, 0.00009992;
  (x15_30, x5, x90_105) 0.00009992, 0.00009992, 0.00009992, 0.00009992, 0.00009992, 0.00009992, 0.00009992, 0.99920064, 0.00009992;
  (x30_45, x5, x90_105) 0.00009992, 0.00009992, 0.00009992, 0.00009992, 0.00009992, 0.00009992, 0.00009992, 0.00009992, 0.99920064;
  (x45_60, x5, x90_105) 0.00009992, 0.00009992, 0.00009992, 0.00009992, 0.00009992, 0.00009992, 0.00009992, 0.00009992, 0.99920064;
  (x60_75, x5, x90_105) 0.00009992, 0.00009992, 0.00009992, 0.00009992, 0.00009992, 0.00009992, 0.00009992, 0.00009992, 0.99920064;
  (x_75, x5, x90_105) 0.00009992, 0.00009992, 0.00009992, 0.00009992, 0.00009992, 0.00009992, 0.00009992, 0.00009992, 0.99920064;
  (x0_15, x10, x90_105) 0.00009992, 0.00009992, 0.00009992, 0.00009992, 0.00009992, 0.00009992, 0.99920064, 0.00009992, 0.00009992;
  (x15_30, x10, x90_105) 0.00009992, 0.00009992, 0.00009992, 0.00009992, 0.00009992, 0.00009992, 0.00009992, 0.99920064, 0.00009992;
  (x30_45, x10, x90_105) 0.00009992, 0.00009992, 0.00009992, 0.00009992, 0.00009992, 0.00009992, 0.00009992, 0.00009992, 0.99920064;
  (x45_60, x10, x90_105) 0.00009992, 0.00009992, 0.00009992, 0.00009992, 0.00009992, 0.00009992, 0.00009992, 0.00009992, 0.99920064;
  (x60_75, x10, x90_105) 0.00009992, 0.00009992, 0.00009992, 0.00009992, 0.00009992, 0.00009992, 0.00009992, 0.00009992, 0.99920064;
  (x_75, x10, x90_105) 0.00009992, 0.00009992, 0.00009992, 0.00009992, 0.00009992, 0.00009992, 0.00009992, 0.00009992, 0.99920064;
  (x0_15, x15, x90_105) 0.00009993, 0.00009993, 0.00009993, 0.00009993, 0.00009993, 0.49965024, 0.49965024, 0.00009993, 0.00009993;
  (x15_30, x15, x90_105) 0.00009993, 0.00009993, 0.00009993, 0.00009993, 0.00009993, 0.00009993, 0.49965024, 0.49965024, 0.00009993;
  (x30_45, x15, x90_105) 0.00009993, 0.00009993, 0.00009993, 0.00009993, 0.00009993, 0.00009993, 0.00009993, 0.49965024, 0.49965024;
  (x45_60, x15, x90_105) 0.00009992, 0.00009992, 0.00009992, 0.00009992, 0.00009992, 0.00009992, 0.00009992, 0.00009992, 0.99920064;
  (x60_75, x15, x90_105) 0.00009992, 0.00009992, 0.00009992, 0.00009992, 0.00009992, 0.00009992, 0.00009992, 0.00009992, 0.99920064;
  (x_75, x15, x90_105) 0.00009992, 0.00009992, 0.00009992, 0.00009992, 0.00009992, 0.00009992, 0.00009992, 0.00009992, 0.99920064;
  (x0_15, x20, x90_105) 0.00009992, 0.00009992, 0.00009992, 0.00009992, 0.00009992, 0.99920064, 0.00009992, 0.00009992, 0.00009992;
  (x15_30, x20, x90_105) 0.00009992, 0.00009992, 0.00009992, 0.00009992, 0.00009992, 0.00009992, 0.99920064, 0.00009992, 0.00009992;
  (x30_45, x20, x90_105) 0.00009992, 0.00009992, 0.00009992, 0.00009992, 0.00009992, 0.00009992, 0.00009992, 0.99920064, 0.00009992;
  (x45_60, x20, x90_105) 0.00009992, 0.00009992, 0.00009992, 0.00009992, 0.00009992, 0.00009992, 0.00009992, 0.00009992, 0.99920064;
  (x60_75, x20, x90_105) 0.00009992, 0.00009992, 0.00009992, 0.00009992, 0.00009992, 0.00009992, 0.00009992, 0.00009992, 0.99920064;
  (x_75, x20, x90_105) 0.00009992, 0.00009992, 0.00009992, 0.00009992, 0.00009992, 0.00009992, 0.00009992, 0.00009992, 0.99920064;
  (x0_15, x25, x90_105) 0.00009992, 0.00009992, 0.00009992, 0.00009992, 0.00009992, 0.99920064, 0.00009992, 0.00009992, 0.00009992;
  (x15_30, x25, x90_105) 0.00009992, 0.00009992, 0.00009992, 0.00009992, 0.00009992, 0.00009992, 0.99920064, 0.00009992, 0.00009992;
  (x30_45, x25, x90_105) 0.00009992, 0.00009992, 0.00009992, 0.00009992, 0.00009992, 0.00009992, 0.00009992, 0.99920064, 0.00009992;
  (x45_60, x25, x90_105) 0.00009992, 0.00009992, 0.00009992, 0.00009992, 0.00009992, 0.00009992, 0.00009992, 0.00009992, 0.99920064;
  (x60_75, x25, x90_105) 0.00009992, 0.00009992, 0.00009992, 0.00009992, 0.00009992, 0.00009992, 0.00009992, 0.00009992, 0.99920064;
  (x_75, x25, x90_105) 0.00009992, 0.00009992, 0.00009992, 0.00009992, 0.00009992, 0.00009992, 0.00009992, 0.00009992, 0.99920064;
  (x0_15, x_25, x_105) 0.00009992, 0.00009992, 0.00009992, 0.00009992, 0.00009992, 0.00009992, 0.00009992, 0.00009992, 0.99920064;
  (x15_30, x_25, x_105) 0.00009992, 0.00009992, 0.00009992, 0.00009992, 0.00009992, 0.00009992, 0.00009992, 0.00009992, 0.99920064;
  (x30_45, x_25, x_105) 0.00009992, 0.00009992, 0.00009992, 0.00009992, 0.00009992, 0.00009992, 0.00009992, 0.00009992, 0.99920064;
  (x45_60, x_25, x_105) 0.00009992, 0.00009992, 0.00009992, 0.00009992, 0.00009992, 0.00009992, 0.00009992, 0.00009992, 0.99920064;
  (x60_75, x_25, x_105) 0.00009992, 0.00009992, 0.00009992, 0.00009992, 0.00009992, 0.00009992, 0.00009992, 0.00009992, 0.99920064;
  (x_75, x_25, x_105) 0.00009992, 0.00009992, 0.00009992, 0.00009992, 0.00009992, 0.00009992, 0.00009992, 0.00009992, 0.99920064;
  (x0_15, x_20, x_105) 0.00009992, 0.00009992, 0.00009992, 0.00009992, 0.00009992, 0.00009992, 0.00009992, 0.00009992, 0.99920064;
  (x15_30, x_20, x_105) 0.00009992, 0.00009992, 0.00009992, 0.00009992, 0.00009992, 0.00009992, 0.00009992, 0.00009992, 0.99920064;
  (x30_45, x_20, x_105) 0.00009992, 0.00009992, 0.00009992, 0.00009992, 0.00009992, 0.00009992, 0.00009992, 0.00009992, 0.99920064;
  (x45_60, x_20, x_105) 0.00009992, 0.00009992, 0.00009992, 0.00009992, 0.00009992, 0.00009992, 0.00009992, 0.00009992, 0.99920064;
  (x60_75, x_20, x_105) 0.00009992, 0.00009992, 0.00009992, 0.00009992, 0.00009992, 0.00009992, 0.00009992, 0.00009992, 0.99920064;
  (x_75, x_20, x_105) 0.00009992, 0.00009992, 0.00009992, 0.00009992, 0.00009992, 0.00009992, 0.00009992, 0.00009992, 0.99920064;
  (x0_15, x_15, x_105) 0.00009992, 0.00009992, 0.00009992, 0.00009992, 0.00009992, 0.00009992, 0.00009992, 0.00009992, 0.99920064;
  (x15_30, x_15, x_105) 0.00009992, 0.00009992, 0.00009992, 0.00009992, 0.00009992, 0.00009992, 0.00009992, 0.00009992, 0.99920064;
  (x30_45, x_15, x_105) 0.00009992, 0.00009992, 0.00009992, 0.00009992, 0.00009992, 0.00009992, 0.00009992, 0.00009992, 0.99920064;
  (x45_60, x_15, x_105) 0.00009992, 0.00009992, 0.00009992, 0.00009992, 0.00009992, 0.00009992, 0.00009992, 0.00009992, 0.99920064;
  (x60_75, x_15, x_105) 0.00009992, 0.00009992, 0.00009992, 0.00009992, 0.00009992, 0.00009992, 0.00009992, 0.00009992, 0.99920064;
  (x_75, x_15, x_105) 0.00009992, 0.00009992, 0.00009992, 0.00009992, 0.00009992, 0.00009992, 0.00009992, 0.00009992, 0.99920064;
  (x0_15, x_10, x_105) 0.00009992, 0.00009992, 0.00009992, 0.00009992, 0.00009992, 0.00009992, 0.00009992, 0.00009992, 0.99920064;
  (x15_30, x_10, x_105) 0.00009992, 0.00009992, 0.00009992, 0.00009992, 0.00009992, 0.00009992, 0.00009992, 0.00009992, 0.99920064;
  (x30_45, x_10, x_105) 0.00009992, 0.00009992, 0.00009992, 0.00009992, 0.00009992, 0.00009992, 0.00009992, 0.00009992, 0.99920064;
  (x45_60, x_10, x_105) 0.00009992, 0.00009992, 0.00009992, 0.00009992, 0.00009992, 0.00009992, 0.00009992, 0.00009992, 0.99920064;
  (x60_75, x_10, x_105) 0.00009992, 0.00009992, 0.00009992, 0.00009992, 0.00009992, 0.00009992, 0.00009992, 0.00009992, 0.99920064;
  (x_75, x_10, x_105) 0.00009992, 0.00009992, 0.00009992, 0.00009992, 0.00009992, 0.00009992, 0.00009992, 0.00009992, 0.99920064;
  (x0_15, x_5, x_105) 0.00009992, 0.00009992, 0.00009992, 0.00009992, 0.00009992, 0.00009992, 0.00009992, 0.00009992, 0.99920064;
  (x15_30, x_5, x_105) 0.00009992, 0.00009992, 0.00009992, 0.00009992, 0.00009992, 0.00009992, 0.00009992, 0.00009992, 0.99920064;
  (x30_45, x_5, x_105) 0.00009992, 0.00009992, 0.00009992, 0.00009992, 0.00009992, 0.00009992, 0.00009992, 0.00009992, 0.99920064;
  (x45_60, x_5, x_105) 0.00009992, 0.00009992, 0.00009992, 0.00009992, 0.00009992, 0.00009992, 0.00009992, 0.00009992, 0.99920064;
  (x60_75, x_5, x_105) 0.00009992, 0.00009992, 0.00009992, 0.00009992, 0.00009992, 0.00009992, 0.00009992, 0.00009992, 0.99920064;
  (x_75, x_5, x_105) 0.00009992, 0.00009992, 0.00009992, 0.00009992, 0.00009992, 0.00009992, 0.00009992, 0.00009992, 0.99920064;
  (x0_15, x0, x_105) 0.00009992, 0.00009992, 0.00009992, 0.00009992, 0.00009992, 0.00009992, 0.00009992, 0.00009992, 0.99920064;
  (x15_30, x0, x_105) 0.00009992, 0.00009992, 0.00009992, 0.00009992, 0.00009992, 0.00009992, 0.00009992, 0.00009992, 0.99920064;
  (x30_45, x0, x_105) 0.00009992, 0.00009992, 0.00009992, 0.00009992, 0.00009992, 0.00009992, 0.00009992, 0.00009992, 0.99920064;
  (x45_60, x0, x_105) 0.00009992, 0.00009992, 0.00009992, 0.00009992, 0.00009992, 0.00009992, 0.00009992, 0.00009992, 0.99920064;
  (x60_75, x0, x_105) 0.00009992, 0.00009992, 0.00009992, 0.00009992, 0.00009992, 0.00009992, 0.00009992, 0.00009992, 0.99920064;
  (x_75, x0, x_105) 0.00009992, 0.00009992, 0.00009992, 0.00009992, 0.00009992, 0.00009992, 0.00009992, 0.00009992, 0.99920064;
  (x0_15, x5, x_105) 0.00009992, 0.00009992, 0.00009992, 0.00009992, 0.00009992, 0.00009992, 0.00009992, 0.99920064, 0.00009992;
  (x15_30, x5, x_105) 0.00009992, 0.00009992, 0.00009992, 0.00009992, 0.00009992, 0.00009992, 0.00009992, 0.00009992, 0.99920064;
  (x30_45, x5, x_105) 0.00009992, 0.00009992, 0.00009992, 0.00009992, 0.00009992, 0.00009992, 0.00009992, 0.00009992, 0.99920064;
  (x45_60, x5, x_105) 0.00009992, 0.00009992, 0.00009992, 0.00009992, 0.00009992, 0.00009992, 0.00009992, 0.00009992, 0.99920064;
  (x60_75, x5, x_105) 0.00009992, 0.00009992, 0.00009992, 0.00009992, 0.00009992, 0.00009992, 0.00009992, 0.00009992, 0.99920064;
  (x_75, x5, x_105) 0.00009992, 0.00009992, 0.00009992, 0.00009992, 0.00009992, 0.00009992, 0.00009992, 0.00009992, 0.99920064;
  (x0_15, x10, x_105) 0.00009992, 0.00009992, 0.00009992, 0.00009992, 0.00009992, 0.00009992, 0.00009992, 0.99920064, 0.00009992;
  (x15_30, x10, x_105) 0.00009992, 0.00009992, 0.00009992, 0.00009992, 0.00009992, 0.00009992, 0.00009992, 0.00009992, 0.99920064;
  (x30_45, x10, x_105) 0.00009992, 0.00009992, 0.00009992, 0.00009992, 0.00009992, 0.00009992, 0.00009992, 0.00009992, 0.99920064;
  (x45_60, x10, x_105) 0.00009992, 0.00009992, 0.00009992, 0.00009992, 0.00009992, 0.00009992, 0.00009992, 0.00009992, 0.99920064;
  (x60_75, x10, x_105) 0.00009992, 0.00009992, 0.00009992, 0.00009992, 0.00009992, 0.00009992, 0.00009992, 0.00009992, 0.99920064;
  (x_75, x10, x_105) 0.00009992, 0.00009992, 0.00009992, 0.00009992, 0.00009992, 0.00009992, 0.00009992, 0.00009992, 0.99920064;
  (x0_15, x15, x_105) 0.00009992, 0.00009992, 0.00009992, 0.00009992, 0.00009992, 0.00009992, 0.00009992, 0.99920064, 0.00009992;
  (x15_30, x15, x_105) 0.00009992, 0.00009992, 0.00009992, 0.00009992, 0.00009992, 0.00009992, 0.00009992, 0.00009992, 0.99920064;
  (x30_45, x15, x_105) 0.00009992, 0.00009992, 0.00009992, 0.00009992, 0.00009992, 0.00009992, 0.00009992, 0.00009992, 0.99920064;
  (x45_60, x15, x_105) 0.00009992, 0.00009992, 0.00009992, 0.00009992, 0.00009992, 0.00009992, 0.00009992, 0.00009992, 0.99920064;
  (x60_75, x15, x_105) 0.00009992, 0.00009992, 0.00009992, 0.00009992, 0.00009992, 0.00009992, 0.00009992, 0.00009992, 0.99920064;
  (x_75, x15, x_105) 0.00009992, 0.00009992, 0.00009992, 0.00009992, 0.00009992, 0.00009992, 0.00009992, 0.00009992, 0.99920064;
  (x0_15, x20, x_105) 0.00009992, 0.00009992, 0.00009992, 0.00009992, 0.00009992, 0.00009992, 0.99920064, 0.00009992, 0.00009992;
  (x15_30, x20, x_105) 0.00009992, 0.00009992, 0.00009992, 0.00009992, 0.00009992, 0.00009992, 0.00009992, 0.99920064, 0.00009992;
  (x30_45, x20, x_105) 0.00009992, 0.00009992, 0.00009992, 0.00009992, 0.00009992, 0.00009992, 0.00009992, 0.00009992, 0.99920064;
  (x45_60, x20, x_105) 0.00009992, 0.00009992, 0.00009992, 0.00009992, 0.00009992, 0.00009992, 0.00009992, 0.00009992, 0.99920064;
  (x60_75, x20, x_105) 0.00009992, 0.00009992, 0.00009992, 0.00009992, 0.00009992, 0.00009992, 0.00009992, 0.00009992, 0.99920064;
  (x_75, x20, x_105) 0.00009992, 0.00009992, 0.00009992, 0.00009992, 0.00009992, 0.00009992, 0.00009992, 0.00009992, 0.99920064;
  (x0_15, x25, x_105) 0.00009992, 0.00009992, 0.00009992, 0.00009992, 0.00009992, 0.00009992, 0.99920064, 0.00009992, 0.00009992;
  (x15_30, x25, x_105) 0.00009992, 0.00009992, 0.00009992, 0.00009992, 0.00009992, 0.00009992, 0.00009992, 0.99920064, 0.00009992;
  (x30_45, x25, x_105) 0.00009992, 0.00009992, 0.00009992, 0.00009992, 0.00009992, 0.00009992, 0.00009992, 0.00009992, 0.99920064;
  (x45_60, x25, x_105) 0.00009992, 0.00009992, 0.00009992, 0.00009992, 0.00009992, 0.00009992, 0.00009992, 0.00009992, 0.99920064;
  (x60_75, x25, x_105) 0.00009992, 0.00009992, 0.00009992, 0.00009992, 0.00009992, 0.00009992, 0.00009992, 0.00009992, 0.99920064;
  (x_75, x25, x_105) 0.00009992, 0.00009992, 0.00009992, 0.00009992, 0.00009992, 0.00009992, 0.00009992, 0.00009992, 0.99920064;
}
probability ( pesticid ) {
  table 9.999e-05, 9.999e-01;
}
probability ( exptgens | jordtype, forfrugt, pesticid ) {
  (Jb_1_, Cereals, x_) 0.02279771, 0.47715230, 0.47715230, 0.02269771, 0.00009999, 0.00009999;
  (JB_2, Cereals, x_) 0.00819918, 0.33636612, 0.60054021, 0.05459452, 0.00019998, 0.00009999;
  (JB_3, Cereals, x_) 0.02279771, 0.47715230, 0.47715230, 0.02269771, 0.00009999, 0.00009999;
  (JB_4, Cereals, x_) 0.0013, 0.1573, 0.6827, 0.1573, 0.0013, 0.0001;
  (JB_5, Cereals, x_) 0.0001, 0.0227, 0.4772, 0.4772, 0.0227, 0.0001;
  (JB_6, Cereals, x_) 0.0001, 0.0227, 0.4772, 0.4772, 0.0227, 0.0001;
  (Jb_7, Cereals, x_) 0.00009999, 0.00009999, 0.03589640, 0.54324601, 0.40675901, 0.01389860;
  (JB_8, Cereals, x_) 0.0013, 0.1573, 0.6827, 0.1573, 0.0013, 0.0001;
  (JB_9, Cereals, x_) 0.0013, 0.1573, 0.6827, 0.1573, 0.0013, 0.0001;
  (Jb_1_, Cer_rotation, x_) 0.00819918, 0.33636612, 0.60054021, 0.05459452, 0.00019998, 0.00009999;
  (JB_2, Cer_rotation, x_) 0.00259948, 0.20925814, 0.67296546, 0.11437708, 0.00069986, 0.00009998;
  (JB_3, Cer_rotation, x_) 0.00819918, 0.33636612, 0.60054021, 0.05459452, 0.00019998, 0.00009999;
  (JB_4, Cer_rotation, x_) 0.00029997, 0.08039204, 0.64493533, 0.26957314, 0.00469953, 0.00009999;
  (JB_5, Cer_rotation, x_) 0.00009999, 0.01389860, 0.40675901, 0.54324601, 0.03589640, 0.00009999;
  (JB_6, Cer_rotation, x_) 0.00009999, 0.01389860, 0.40675901, 0.54324601, 0.03589640, 0.00009999;
  (Jb_7, Cer_rotation, x_) 0.00009999, 0.00009999, 0.02269771, 0.47715230, 0.47715230, 0.02279771;
  (JB_8, Cer_rotation, x_) 0.00029997, 0.08039204, 0.64493533, 0.26957314, 0.00469953, 0.00009999;
  (JB_9, Cer_rotation, x_) 0.00029997, 0.08039204, 0.64493533, 0.26957314, 0.00469953, 0.00009999;
  (Jb_1_, Beets, x_) 0.0013, 0.1573, 0.6827, 0.1573, 0.0013, 0.0001;
  (JB_2, Beets, x_) 0.00029997, 0.08039204, 0.64493533, 0.26957314, 0.00469953, 0.00009999;
  (JB_3, Beets, x_) 0.0013, 0.1573, 0.6827, 0.1573, 0.0013, 0.0001;
  (JB_4, Beets, x_) 0.0001, 0.0227, 0.4772, 0.4772, 0.0227, 0.0001;
  (JB_5, Beets, x_) 0.0001, 0.0013, 0.1573, 0.6827, 0.1573, 0.0013;
  (JB_6, Beets, x_) 0.0001, 0.0013, 0.1573, 0.6827, 0.1573, 0.0013;
  (Jb_7, Beets, x_) 0.00009997, 0.00009997, 0.00469859, 0.26951891, 0.64480679, 0.08077577;
  (JB_8, Beets, x_) 0.0001, 0.0227, 0.4772, 0.4772, 0.0227, 0.0001;
  (JB_9, Beets, x_) 0.0001, 0.0227, 0.4772, 0.4772, 0.0227, 0.0001;
  (Jb_1_, Clovergrass, x_) 0.0013, 0.1573, 0.6827, 0.1573, 0.0013, 0.0001;
  (JB_2, Clovergrass, x_) 0.00029997, 0.08039204, 0.64493533, 0.26957314, 0.00469953, 0.00009999;
  (JB_3, Clovergrass, x_) 0.0013, 0.1573, 0.6827, 0.1573, 0.0013, 0.0001;
  (JB_4, Clovergrass, x_) 0.0001, 0.0227, 0.4772, 0.4772, 0.0227, 0.0001;
  (JB_5, Clovergrass, x_) 0.0001, 0.0013, 0.1573, 0.6827, 0.1573, 0.0013;
  (JB_6, Clovergrass, x_) 0.0001, 0.0013, 0.1573, 0.6827, 0.1573, 0.0013;
  (Jb_7, Clovergrass, x_) 0.00009998, 0.00009998, 0.00819836, 0.33633289, 0.60047981, 0.05478898;
  (JB_8, Clovergrass, x_) 0.0001, 0.0227, 0.4772, 0.4772, 0.0227, 0.0001;
  (JB_9, Clovergrass, x_) 0.0001, 0.0227, 0.4772, 0.4772, 0.0227, 0.0001;
  (Jb_1_, Other, x_) 0.00469953, 0.26957314, 0.64493533, 0.08039204, 0.00029997, 0.00009999;
  (JB_2, Other, x_) 0.0013, 0.1573, 0.6827, 0.1573, 0.0013, 0.0001;
  (JB_3, Other, x_) 0.00469953, 0.26957314, 0.64493533, 0.08039204, 0.00029997, 0.00009999;
  (JB_4, Other, x_) 0.00019998, 0.05459452, 0.60054021, 0.33636612, 0.00819918, 0.00009999;
  (JB_5, Other, x_) 0.00009999, 0.00469953, 0.26957314, 0.64493533, 0.08039204, 0.00029997;
  (JB_6, Other, x_) 0.00009999, 0.00469953, 0.26957314, 0.64493533, 0.08039204, 0.00029997;
  (Jb_7, Other, x_) 0.00009999, 0.00009999, 0.01389860, 0.40675901, 0.54324601, 0.03589640;
  (JB_8, Other, x_) 0.00019998, 0.05459452, 0.60054021, 0.33636612, 0.00819918, 0.00009999;
  (JB_9, Other, x_) 0.00019998, 0.05459452, 0.60054021, 0.33636612, 0.00819918, 0.00009999;
  (Jb_1_, Cereals, x_2) 0.11506510, 0.67289856, 0.20923718, 0.00259922, 0.00009997, 0.00009997;
  (JB_2, Cereals, x_2) 0.05938812, 0.61057825, 0.32253513, 0.00729854, 0.00009998, 0.00009998;
  (JB_3, Cereals, x_2) 0.11506510, 0.67289856, 0.20923718, 0.00259922, 0.00009997, 0.00009997;
  (JB_4, Cereals, x_2) 0.01789639, 0.44221171, 0.51099766, 0.02869428, 0.00009998, 0.00009998;
  (JB_5, Cereals, x_2) 0.0013, 0.1573, 0.6827, 0.1573, 0.0013, 0.0001;
  (JB_6, Cereals, x_2) 0.0013, 0.1573, 0.6827, 0.1573, 0.0013, 0.0001;
  (Jb_7, Cereals, x_2) 0.00009999, 0.00439956, 0.26317394, 0.64853487, 0.08339168, 0.00039996;
  (JB_8, Cereals, x_2) 0.01789639, 0.44221171, 0.51099766, 0.02869428, 0.00009998, 0.00009998;
  (JB_9, Cereals, x_2) 0.01789639, 0.44221171, 0.51099766, 0.02869428, 0.00009998, 0.00009998;
  (Jb_1_, Cer_rotation, x_2) 0.05938812, 0.61057825, 0.32253513, 0.00729854, 0.00009998, 0.00009998;
  (JB_2, Cer_rotation, x_2) 0.02739451, 0.50439912, 0.44931011, 0.01869630, 0.00009998, 0.00009998;
  (JB_3, Cer_rotation, x_2) 0.05938812, 0.61057825, 0.32253513, 0.00729854, 0.00009998, 0.00009998;
  (JB_4, Cer_rotation, x_2) 0.00689932, 0.31576829, 0.61543856, 0.06159386, 0.00019998, 0.00009999;
  (JB_5, Cer_rotation, x_2) 0.00069993, 0.11828792, 0.67483254, 0.20367986, 0.00239976, 0.00009999;
  (JB_6, Cer_rotation, x_2) 0.00069993, 0.11828792, 0.67483254, 0.20367986, 0.00239976, 0.00009999;
  (Jb_7, Cer_rotation, x_2) 0.00009998, 0.00259948, 0.20925814, 0.67296546, 0.11437708, 0.00069986;
  (JB_8, Cer_rotation, x_2) 0.00689932, 0.31576829, 0.61543856, 0.06159386, 0.00019998, 0.00009999;
  (JB_9, Cer_rotation, x_2) 0.00689932, 0.31576829, 0.61543856, 0.06159386, 0.00019998, 0.00009999;
  (Jb_1_, Beets, x_2) 0.01789639, 0.44221171, 0.51099766, 0.02869428, 0.00009998, 0.00009998;
  (JB_2, Beets, x_2) 0.00689932, 0.31576829, 0.61543856, 0.06159386, 0.00019998, 0.00009999;
  (JB_3, Beets, x_2) 0.01789639, 0.44221171, 0.51099766, 0.02869428, 0.00009998, 0.00009998;
  (JB_4, Beets, x_2) 0.0013, 0.1573, 0.6827, 0.1573, 0.0013, 0.0001;
  (JB_5, Beets, x_2) 0.00009999, 0.02869709, 0.51104885, 0.44225588, 0.01779820, 0.00009999;
  (JB_6, Beets, x_2) 0.00009999, 0.02869709, 0.51104885, 0.44225588, 0.01779820, 0.00009999;
  (Jb_7, Beets, x_2) 0.00009999, 0.00039996, 0.08969095, 0.65523463, 0.25067486, 0.00389961;
  (JB_8, Beets, x_2) 0.0013, 0.1573, 0.6827, 0.1573, 0.0013, 0.0001;
  (JB_9, Beets, x_2) 0.0013, 0.1573, 0.6827, 0.1573, 0.0013, 0.0001;
  (Jb_1_, Clovergrass, x_2) 0.01789639, 0.44221171, 0.51099766, 0.02869428, 0.00009998, 0.00009998;
  (JB_2, Clovergrass, x_2) 0.00689932, 0.31576829, 0.61543856, 0.06159386, 0.00019998, 0.00009999;
  (JB_3, Clovergrass, x_2) 0.01789639, 0.44221171, 0.51099766, 0.02869428, 0.00009998, 0.00009998;
  (JB_4, Clovergrass, x_2) 0.0013, 0.1573, 0.6827, 0.1573, 0.0013, 0.0001;
  (JB_5, Clovergrass, x_2) 0.00009999, 0.02869709, 0.51104885, 0.44225588, 0.01779820, 0.00009999;
  (JB_6, Clovergrass, x_2) 0.00009999, 0.02869709, 0.51104885, 0.44225588, 0.01779820, 0.00009999;
  (Jb_7, Clovergrass, x_2) 0.00009999, 0.00079992, 0.12218804, 0.67643222, 0.19818006, 0.00229977;
  (JB_8, Clovergrass, x_2) 0.0013, 0.1573, 0.6827, 0.1573, 0.0013, 0.0001;
  (JB_9, Clovergrass, x_2) 0.0013, 0.1573, 0.6827, 0.1573, 0.0013, 0.0001;
  (Jb_1_, Other, x_2) 0.04089591, 0.56154419, 0.38546112, 0.01189880, 0.00009999, 0.00009999;
  (JB_2, Other, x_2) 0.01789639, 0.44221171, 0.51099766, 0.02869428, 0.00009998, 0.00009998;
  (JB_3, Other, x_2) 0.04089591, 0.56154419, 0.38546112, 0.01189880, 0.00009999, 0.00009999;
  (JB_4, Other, x_2) 0.0041, 0.2569, 0.6520, 0.0865, 0.0004, 0.0001;
  (JB_5, Other, x_2) 0.00019998, 0.06159386, 0.61543856, 0.31576829, 0.00689932, 0.00009999;
  (JB_6, Other, x_2) 0.00019998, 0.06159386, 0.61543856, 0.31576829, 0.00689932, 0.00009999;
  (Jb_7, Other, x_2) 0.00009999, 0.00139986, 0.16208388, 0.68253151, 0.15258489, 0.00129987;
  (JB_8, Other, x_2) 0.0041, 0.2569, 0.6520, 0.0865, 0.0004, 0.0001;
  (JB_9, Other, x_2) 0.0041, 0.2569, 0.6520, 0.0865, 0.0004, 0.0001;
}
probability ( mod_nmin | nmin, aar_mod ) {
  (x0_15, x_25) 0.00009995, 0.00009995, 0.99950025, 0.00009995, 0.00009995, 0.00009995;
  (x15_30, x_25) 0.00009995, 0.00009995, 0.00009995, 0.99950025, 0.00009995, 0.00009995;
  (x30_45, x_25) 0.00009995, 0.00009995, 0.00009995, 0.00009995, 0.99950025, 0.00009995;
  (x45_60, x_25) 0.00009995, 0.00009995, 0.00009995, 0.00009995, 0.00009995, 0.99950025;
  (x60_75, x_25) 0.00009995, 0.00009995, 0.00009995, 0.00009995, 0.00009995, 0.99950025;
  (x_75, x_25) 0.00009995, 0.00009995, 0.00009995, 0.00009995, 0.00009995, 0.99950025;
  (x0_15, x_20) 0.00009995, 0.99950025, 0.00009995, 0.00009995, 0.00009995, 0.00009995;
  (x15_30, x_20) 0.00009995, 0.00009995, 0.99950025, 0.00009995, 0.00009995, 0.00009995;
  (x30_45, x_20) 0.00009995, 0.00009995, 0.00009995, 0.99950025, 0.00009995, 0.00009995;
  (x45_60, x_20) 0.00009995, 0.00009995, 0.00009995, 0.00009995, 0.99950025, 0.00009995;
  (x60_75, x_20) 0.00009995, 0.00009995, 0.00009995, 0.00009995, 0.00009995, 0.99950025;
  (x_75, x_20) 0.00009995, 0.00009995, 0.00009995, 0.00009995, 0.00009995, 0.99950025;
  (x0_15, x_15) 0.00009995, 0.99950025, 0.00009995, 0.00009995, 0.00009995, 0.00009995;
  (x15_30, x_15) 0.00009995, 0.00009995, 0.99950025, 0.00009995, 0.00009995, 0.00009995;
  (x30_45, x_15) 0.00009995, 0.00009995, 0.00009995, 0.99950025, 0.00009995, 0.00009995;
  (x45_60, x_15) 0.00009995, 0.00009995, 0.00009995, 0.00009995, 0.99950025, 0.00009995;
  (x60_75, x_15) 0.00009995, 0.00009995, 0.00009995, 0.00009995, 0.00009995, 0.99950025;
  (x_75, x_15) 0.00009995, 0.00009995, 0.00009995, 0.00009995, 0.00009995, 0.99950025;
  (x0_15, x_10) 0.00009995, 0.99950025, 0.00009995, 0.00009995, 0.00009995, 0.00009995;
  (x15_30, x_10) 0.00009995, 0.00009995, 0.99950025, 0.00009995, 0.00009995, 0.00009995;
  (x30_45, x_10) 0.00009995, 0.00009995, 0.00009995, 0.99950025, 0.00009995, 0.00009995;
  (x45_60, x_10) 0.00009995, 0.00009995, 0.00009995, 0.00009995, 0.99950025, 0.00009995;
  (x60_75, x_10) 0.00009995, 0.00009995, 0.00009995, 0.00009995, 0.00009995, 0.99950025;
  (x_75, x_10) 0.00009995, 0.00009995, 0.00009995, 0.00009995, 0.00009995, 0.99950025;
  (x0_15, x_5) 0.99950025, 0.00009995, 0.00009995, 0.00009995, 0.00009995, 0.00009995;
  (x15_30, x_5) 0.00009995, 0.99950025, 0.00009995, 0.00009995, 0.00009995, 0.00009995;
  (x30_45, x_5) 0.00009995, 0.00009995, 0.99950025, 0.00009995, 0.00009995, 0.00009995;
